<?xml version="1.0"?>
<opencv_storage>
<opencv_ml_svm>
  <format>3</format>
  <svmType>C_SVC</svmType>
  <kernel>
    <type>RBF</type>
    <gamma>1.0000000000000000e-02</gamma></kernel>
  <C>1000.</C>
  <term_criteria><epsilon>1.1920928955078125e-07</epsilon></term_criteria>
  <var_count>22</var_count>
  <class_count>24</class_count>
  <class_labels type_id="opencv-matrix">
    <rows>24</rows>
    <cols>1</cols>
    <dt>i</dt>
    <data>
      0 1 2 3 4 5 6 7 8 9 10 11 12 13 14 15 16 17 18 19 20 21 22 23</data></class_labels>
  <sv_total>287</sv_total>
  <support_vectors>
    <_>
      -1.02266765e+00 -1.13833714e+00 -8.77590716e-01 -8.38380754e-01
      -8.79551232e-01 1.70830762e+00 8.50143731e-02 1.63576913e+00
      2.55577773e-01 3.90852273e-01 2.00683817e-01 1.97101450e+00
      3.61444771e-01 3.77128750e-01 -1.30640537e-01 -2.36507520e-01
      1.79456973e+00 -5.07056355e-01 -2.71796435e-01 -9.03077185e-01
      -9.40326691e-01 -1.03443062e+00</_>
    <_>
      -1.04114735e+00 -1.11149037e+00 -9.49891388e-01 -8.56734276e-01
      -8.79548252e-01 1.66801333e+00 2.06017226e-01 1.69653094e+00
      1.90807909e-01 5.31116545e-01 1.83203250e-01 1.84101927e+00
      2.15523019e-01 4.45564061e-01 -7.53552765e-02 -1.62808910e-01
      1.83341479e+00 -4.84105855e-01 -3.33913803e-01 -9.40385520e-01
      -9.34682012e-01 -1.04114735e+00</_>
    <_>
      -1.10633063e+00 -1.15494943e+00 -9.15595710e-01 -8.98766220e-01
      -8.66977036e-01 1.50412023e+00 1.55885845e-01 1.70607471e+00
      1.68975517e-01 5.29875934e-01 3.70930225e-01 1.86128068e+00
      3.67190272e-01 3.98979396e-01 -2.54992712e-02 -2.03144655e-01
      1.83510137e+00 -5.02336681e-01 -2.76072741e-01 -9.71694291e-01
      -9.38035190e-01 -1.03901243e+00</_>
    <_>
      -1.03658950e+00 -1.10536873e+00 -8.76724184e-01 -8.97172034e-01
      -8.86018693e-01 1.61048210e+00 5.27251102e-02 1.46177030e+00
      2.18167126e-01 5.97382426e-01 7.73977816e-01 1.97110844e+00
      4.56106186e-01 5.23026526e-01 8.43264610e-02 -2.53993154e-01
      1.50824273e+00 -6.44361854e-01 -4.08281714e-01 -1.00127041e+00
      -1.02543604e+00 -1.12209880e+00</_>
    <_>
      -1.00122929e+00 -1.07363510e+00 -8.23149920e-01 -9.24909532e-01
      -7.66399384e-01 1.72866821e+00 1.22040376e-01 1.80890179e+00
      1.23997264e-01 4.03836280e-01 1.69006348e-01 1.91261828e+00
      2.39455283e-01 2.74679810e-01 -3.84267196e-02 -2.22376794e-01
      1.79324639e+00 -5.57009399e-01 -2.71299660e-01 -9.73832428e-01
      -9.38607931e-01 -9.85573947e-01</_>
    <_>
      -1.09360707e+00 -1.15536702e+00 -9.25697207e-01 -9.56577182e-01
      -8.63937259e-01 1.54663014e+00 1.43521681e-01 1.59102011e+00
      2.38091528e-01 5.85491300e-01 2.41951570e-01 1.92876971e+00
      2.57391542e-01 4.61971343e-01 -5.33381179e-02 -1.98087946e-01
      1.84384990e+00 -5.86017549e-01 -1.40188083e-01 -9.52717185e-01
      -9.00607228e-01 -1.01254714e+00</_>
    <_>
      -1.07984543e+00 -1.14759922e+00 -9.60384905e-01 -8.97980154e-01
      -8.96197200e-01 1.47696674e+00 5.77041097e-02 1.57859731e+00
      2.60965317e-01 6.31827891e-01 5.81904173e-01 1.87635708e+00
      4.28566664e-01 5.12367427e-01 4.34401669e-02 -2.04395831e-01
      1.70875573e+00 -5.07504642e-01 -3.88044089e-01 -9.74648893e-01
      -9.90695834e-01 -1.11015630e+00</_>
    <_>
      -1.07647955e+00 -1.12354779e+00 -9.78722513e-01 -8.64672601e-01
      -8.39328170e-01 1.69511378e+00 1.83500201e-01 1.77657807e+00
      2.14275539e-01 5.16598225e-01 2.81257272e-01 1.60278773e+00
      3.33756387e-01 4.51426953e-01 7.85018653e-02 -1.35115385e-01
      1.81821525e+00 -5.11661053e-01 -3.83128643e-01 -9.73291576e-01
      -9.66050327e-01 -1.10001361e+00</_>
    <_>
      -1.04531741e+00 -1.11808109e+00 -1.00711644e+00 -8.43397975e-01
      -9.32533562e-01 1.28312254e+00 -1.38912657e-02 1.51960456e+00
      2.44420007e-01 7.71957159e-01 6.59173369e-01 2.19630766e+00
      4.42701250e-01 2.75344670e-01 3.34052108e-02 -1.81247830e-01
      1.58509207e+00 -5.32332957e-01 -3.66795391e-01 -9.52543616e-01
      -9.28895354e-01 -1.08897567e+00</_>
    <_>
      -1.06408095e+00 -1.11495602e+00 -9.85951424e-01 -8.38777244e-01
      -8.95103157e-01 1.48875523e+00 -1.38750123e-02 1.69770634e+00
      1.27848297e-01 5.82089663e-01 4.07660931e-01 2.10834050e+00
      4.00393069e-01 4.62169915e-01 -4.11295108e-02 -2.33727828e-01
      1.59413934e+00 -5.66232502e-01 -2.66433150e-01 -9.27808583e-01
      -8.78750503e-01 -1.04227734e+00</_>
    <_>
      -1.04998660e+00 -1.12342060e+00 -9.27596509e-01 -8.37216258e-01
      -8.24035764e-01 1.46559906e+00 1.62616104e-01 1.69343293e+00
      2.13455051e-01 5.31669080e-01 4.46937591e-01 2.06625175e+00
      3.05718243e-01 4.63883877e-01 4.21090424e-02 -2.45978236e-01
      1.61434996e+00 -5.88670313e-01 -3.68368298e-01 -9.74669635e-01
      -9.55840409e-01 -1.11024010e+00</_>
    <_>
      -1.04057145e+00 -1.09333563e+00 -9.66701806e-01 -8.24238837e-01
      -8.98108542e-01 1.25642455e+00 -7.85065070e-02 1.47803366e+00
      2.75012761e-01 7.16472208e-01 7.90341854e-01 2.29060054e+00
      4.20993358e-01 3.40088427e-01 4.81272377e-02 -2.43833944e-01
      1.50617445e+00 -6.14941299e-01 -4.16196644e-01 -9.68460619e-01
      -9.43837345e-01 -1.03353631e+00</_>
    <_>
      -1.11259937e+00 -1.14788437e+00 -1.02967966e+00 -1.03320813e+00
      -9.13239241e-01 1.23561549e+00 1.82359114e-01 1.82134628e+00
      3.00563782e-01 7.59268463e-01 5.77550888e-01 1.19503784e+00
      2.54693359e-01 4.31118190e-01 4.46996480e-01 -1.38734087e-01
      2.02070618e+00 -4.26306605e-01 -2.42824763e-01 -9.94394720e-01
      -1.04732215e+00 -1.13906312e+00</_>
    <_>
      -1.09142005e+00 -1.11884964e+00 -9.90273118e-01 -1.01255977e+00
      -9.59414780e-01 1.24867308e+00 2.86920518e-01 1.97384477e+00
      2.35489875e-01 5.40644825e-01 3.69209498e-01 1.10638154e+00
      2.28632465e-01 6.10933304e-01 4.68642026e-01 -1.94812939e-01
      2.06813431e+00 -4.55394715e-01 -2.42814839e-01 -9.73129630e-01
      -9.83415723e-01 -1.11542094e+00</_>
    <_>
      -1.04505754e+00 -1.10120225e+00 -9.90667284e-01 -9.97685373e-01
      -9.50313270e-01 1.31828451e+00 2.09426165e-01 2.01482987e+00
      2.18198851e-01 6.58584058e-01 3.88387471e-01 1.00597942e+00
      2.77852535e-01 5.02431571e-01 4.18214411e-01 -1.16915010e-01
      2.05342937e+00 -5.20455182e-01 -2.08150163e-01 -1.00294900e+00
      -1.03628492e+00 -1.09593868e+00</_>
    <_>
      -1.08584905e+00 -1.14996350e+00 -9.69750047e-01 -1.01480341e+00
      -9.71482873e-01 1.32277298e+00 2.83080101e-01 1.78716922e+00
      2.17232838e-01 6.97224379e-01 3.02141041e-01 1.12696421e+00
      2.17232838e-01 5.32606363e-01 3.92247856e-01 -1.77850500e-01
      2.18398547e+00 -3.75392169e-01 -2.31567979e-01 -9.71482873e-01
      -1.00267363e+00 -1.11184144e+00</_>
    <_>
      -1.13398182e+00 -1.12380612e+00 -9.79649305e-01 -1.03561604e+00
      -9.11810815e-01 1.10977578e+00 2.21091747e-01 1.94588506e+00
      2.26179659e-01 7.01049089e-01 4.12735462e-01 1.06907272e+00
      3.36417228e-01 4.97533500e-01 4.94141638e-01 -1.53715819e-01
      2.14261699e+00 -4.52205151e-01 -2.94480652e-01 -9.88129139e-01
      -9.77953374e-01 -1.10515046e+00</_>
    <_>
      -1.08565557e+00 -1.14423072e+00 -9.95130539e-01 -1.00933051e+00
      -8.65555406e-01 1.39934695e+00 3.43220770e-01 1.85374725e+00
      1.81695625e-01 7.44371057e-01 2.89970785e-01 1.15084660e+00
      2.75770754e-01 4.74570900e-01 3.96470845e-01 -2.23004758e-01
      2.06319737e+00 -4.66179997e-01 -3.08204830e-01 -9.72055495e-01
      -9.79155540e-01 -1.12470567e+00</_>
    <_>
      -1.04453576e+00 -1.08587825e+00 -9.94924843e-01 -9.86656368e-01
      -9.28776979e-01 1.13999927e+00 2.12274730e-01 1.97346306e+00
      2.45348677e-01 7.96030045e-01 4.91749674e-01 1.17638075e+00
      2.27157980e-01 3.69376004e-01 5.24823546e-01 -2.09418267e-01
      2.06607008e+00 -5.30235767e-01 -3.73134404e-01 -9.75080490e-01
      -9.94924843e-01 -1.09910786e+00</_>
    <_>
      -1.06476390e+00 -1.12196743e+00 -9.82534051e-01 -9.95047271e-01
      -9.44994271e-01 1.68457615e+00 1.72260389e-01 1.89730144e+00
      8.28799978e-02 7.38931954e-01 5.45870304e-01 1.12684262e+00
      3.02755654e-01 4.24313039e-01 2.92030066e-01 -2.81791896e-01
      1.86512458e+00 -5.39207399e-01 -2.56765455e-01 -9.53932285e-01
      -9.43206668e-01 -1.04867554e+00</_>
    <_>
      -1.05201805e+00 -1.14122713e+00 -9.77082491e-01 -1.00741351e+00
      -9.21772838e-01 1.27098584e+00 2.18318880e-01 1.89188075e+00
      1.38030782e-01 7.83904314e-01 6.16191268e-01 1.24779141e+00
      3.41427416e-01 5.02003729e-01 3.18232983e-01 -2.88388520e-01
      1.96503210e+00 -5.56015730e-01 -2.72330910e-01 -9.80650842e-01
      -1.02347112e+00 -1.07342827e+00</_>
    <_>
      -1.10323215e+00 -1.12284875e+00 -9.56999183e-01 -9.92665768e-01
      -9.44515884e-01 1.34527850e+00 1.12998195e-01 1.80537736e+00
      1.71848118e-01 8.54863048e-01 4.46480751e-01 1.38094521e+00
      3.18080992e-01 5.19597173e-01 3.25214297e-01 -2.98950821e-01
      1.96231031e+00 -5.50400138e-01 -2.90034086e-01 -9.62349176e-01
      -9.48082507e-01 -1.07291555e+00</_>
    <_>
      -1.08694327e+00 -1.14798295e+00 -9.55615520e-01 -1.01665521e+00
      -9.98158276e-01 1.48597109e+00 2.98472196e-01 1.88550353e+00
      1.15353212e-01 7.01703846e-01 4.87140238e-01 1.34354544e+00
      2.72576630e-01 3.53962839e-01 3.46564084e-01 -2.52734512e-01
      1.85405886e+00 -4.48801309e-01 -2.00943291e-01 -9.33419287e-01
      -9.79661405e-01 -1.12393701e+00</_>
    <_>
      -8.75250876e-01 -9.82587993e-01 -8.98251653e-01 -9.67254162e-01
      -8.92501473e-01 1.26765871e+00 -1.08556852e-01 1.25807512e+00
      1.57869250e-01 5.66133857e-01 1.24274123e+00 2.07268739e+00
      4.08961475e-01 2.65206367e-01 -7.78891072e-02 -3.88400227e-01
      1.84651268e+00 -5.32155335e-01 -2.86813229e-01 -9.36586380e-01
      -1.01325572e+00 -1.12634313e+00</_>
    <_>
      -8.54812622e-01 -1.08104587e+00 -9.95495498e-01 -1.06773806e+00
      -1.01830900e+00 7.72546053e-01 -2.71168798e-01 1.10904419e+00
      -2.02210359e-02 4.89279181e-01 1.20980358e+00 2.31055212e+00
      5.17795980e-01 3.54299664e-01 3.87136936e-02 -3.43411386e-01
      1.97405374e+00 -4.09950584e-01 -2.97266040e-02 -8.60516012e-01
      -8.49109292e-01 -9.74583209e-01</_>
    <_>
      -8.88762951e-01 -1.03018010e+00 -8.92484426e-01 -8.99927437e-01
      -9.63192999e-01 1.00362217e+00 -2.39360422e-01 1.34041822e+00
      -8.62710550e-03 4.82611448e-01 1.25482368e+00 2.26521206e+00
      2.33270675e-01 3.59801769e-01 8.81319791e-02 -2.91461468e-01
      1.82235312e+00 -4.96144205e-01 -1.76094815e-01 -9.35281754e-01
      -9.53889251e-01 -1.07483816e+00</_>
    <_>
      -8.47358525e-01 -1.01269245e+00 -8.66809547e-01 -9.81570780e-01
      -9.03766572e-01 1.11525249e+00 -1.68516830e-01 1.39729285e+00
      1.67986348e-01 4.44191247e-01 1.33893967e+00 2.24535847e+00
      4.61697280e-01 3.04143727e-01 8.62918943e-02 -4.42776650e-01
      1.56846213e+00 -6.06165528e-01 -2.91058451e-01 -9.77680564e-01
      -1.00880229e+00 -1.02241802e+00</_>
    <_>
      -9.15954053e-01 -1.08279932e+00 -9.08102512e-01 -1.04354167e+00
      -9.33619976e-01 1.06067228e+00 -1.97537750e-01 1.17451966e+00
      2.62312591e-02 6.72020912e-01 1.03122902e+00 2.10100174e+00
      3.77587914e-01 3.48144591e-01 -7.97645003e-02 -2.93719113e-01
      2.08137298e+00 -4.46824253e-01 -5.81728481e-02 -9.33619976e-01
      -9.25768495e-01 -1.05335605e+00</_>
    <_>
      -9.48507845e-01 -1.04265988e+00 -9.15842831e-01 -9.77329910e-01
      -8.88942242e-01 1.11323035e+00 -1.20353937e-01 1.39184356e+00
      6.60287663e-02 5.56003809e-01 1.03060699e+00 2.22191882e+00
      2.54332900e-01 3.86914313e-01 5.06570041e-02 -3.35558712e-01
      1.82993889e+00 -5.66135168e-01 -1.64547786e-01 -9.38900471e-01
      -9.21607256e-01 -1.08108938e+00</_>
    <_>
      -9.34807122e-01 -1.07063675e+00 -9.38633263e-01 -1.07446289e+00
      -9.61590409e-01 7.18105793e-01 -1.81048214e-01 1.16194344e+00
      -5.86102605e-02 5.68884492e-01 1.07394123e+00 2.19884038e+00
      5.47840536e-01 4.48359579e-01 -5.09578884e-02 -3.37921888e-01
      2.10509849e+00 -3.45574260e-01 -6.43495694e-02 -8.69761944e-01
      -9.17589247e-01 -1.01707017e+00</_>
    <_>
      -9.21256661e-01 -1.09078872e+00 -8.98398459e-01 -1.05840611e+00
      -9.42210078e-01 7.95016766e-01 -2.46938348e-01 1.06550598e+00
      6.40725112e-03 5.22622705e-01 1.18551183e+00 2.27889824e+00
      3.93092632e-01 3.77853811e-01 -5.07384092e-02 -2.58367509e-01
      2.07317400e+00 -4.45043147e-01 -6.92675123e-03 -8.67920756e-01
      -9.11732376e-01 -9.99355674e-01</_>
    <_>
      -9.38333631e-01 -1.05355227e+00 -9.51775849e-01 -1.05355227e+00
      -9.55616474e-01 1.12215972e+00 -1.14520326e-01 1.18745041e+00
      8.71123299e-02 6.95850730e-01 1.11063802e+00 2.03430748e+00
      5.67190051e-01 4.40449417e-01 -7.61141181e-02 -2.60464013e-01
      1.89988565e+00 -4.98582482e-01 -2.27818653e-01 -9.61377382e-01
      -9.90182042e-01 -1.06315386e+00</_>
    <_>
      -8.00228179e-01 -1.01885009e+00 -8.73764634e-01 -1.08046162e+00
      -9.09539104e-01 1.15146863e+00 -8.27511251e-02 1.39592767e+00
      9.61212888e-02 5.77089369e-01 9.82533514e-01 2.06570554e+00
      2.88906038e-01 3.38592768e-01 -7.08262473e-02 -2.19886571e-01
      1.99415636e+00 -5.55769265e-01 -2.23861575e-01 -9.63200808e-01
      -9.93012905e-01 -1.09834886e+00</_>
    <_>
      -9.02185738e-01 -1.04679167e+00 -8.83646548e-01 -9.83758330e-01
      -9.18871105e-01 8.90556574e-01 -2.19942510e-01 1.28358805e+00
      -4.38199639e-02 4.82693791e-01 1.17606068e+00 2.05852747e+00
      3.23256493e-01 4.62300748e-01 -2.71347016e-02 -2.18088627e-01
      2.15307736e+00 -4.62806284e-01 -1.73594505e-01 -9.52241659e-01
      -9.48533833e-01 -1.04864562e+00</_>
    <_>
      -8.34583580e-01 -1.02848363e+00 -8.02888393e-01 -9.65093195e-01
      -8.21532607e-01 1.11746728e+00 -7.57633299e-02 1.34865582e+00
      4.35597114e-02 6.81192517e-01 1.35611367e+00 2.25103664e+00
      3.77291501e-01 2.37459660e-01 -7.20345452e-02 -3.85257632e-01
      1.61153948e+00 -5.60513377e-01 -4.28139329e-01 -9.87466276e-01
      -1.02102590e+00 -1.04153454e+00</_>
    <_>
      -9.39897120e-01 -1.06000900e+00 -8.73373568e-01 -1.01935577e+00
      -9.32505608e-01 1.06320071e+00 -1.98898643e-01 1.24244487e+00
      9.67614800e-02 7.54605472e-01 1.22027028e+00 2.28095126e+00
      4.75576222e-01 3.48072708e-01 -2.51982640e-02 -2.91292489e-01
      1.60278082e+00 -6.05431497e-01 -1.74876288e-01 -9.43592846e-01
      -9.49136496e-01 -1.07109630e+00</_>
    <_>
      -8.94697487e-01 -1.05782938e+00 -9.20650303e-01 -9.94801104e-01
      -9.22504067e-01 8.38578820e-01 -2.79245347e-01 1.19450283e+00
      -5.49390949e-02 6.43932700e-01 1.21860194e+00 2.38091660e+00
      4.32602882e-01 3.78843427e-01 -3.08399945e-02 -3.20028335e-01
      1.80439365e+00 -5.70287466e-01 -5.86465821e-02 -9.15088952e-01
      -8.96551251e-01 -9.76263404e-01</_>
    <_>
      -9.24832344e-01 -1.00255907e+00 -9.19409573e-01 -1.04413378e+00
      -8.79642427e-01 1.05629385e+00 -2.18061954e-01 1.04183304e+00
      1.10920765e-01 7.20080972e-01 1.32020307e+00 2.28365254e+00
      4.03751433e-01 3.78445029e-01 -1.72871962e-01 -3.53631705e-01
      1.80463898e+00 -5.81388891e-01 -2.43368253e-01 -9.10371602e-01
      -9.10371602e-01 -9.59176660e-01</_>
    <_>
      -7.29955971e-01 -1.01943386e+00 -6.90028012e-01 -9.35585082e-01
      -7.25963175e-01 1.99712491e+00 4.95832831e-01 1.81345618e+00
      -1.64975151e-01 2.04358622e-01 -4.44471031e-01 6.51552081e-01
      -1.94921151e-01 3.36120963e-01 2.02362254e-01 -4.91839871e-02
      2.42435408e+00 -9.90940332e-02 3.26683111e-02 -9.45567071e-01
      -9.59541857e-01 -1.19910979e+00</_>
    <_>
      -9.03232396e-01 -1.06332588e+00 -7.54853070e-01 -9.40327227e-01
      -7.66567230e-01 1.72464323e+00 4.98561531e-01 1.66607249e+00
      -1.41812339e-01 1.90088809e-01 -3.54619414e-01 6.62559688e-01
      -1.39859900e-01 5.25894642e-01 2.19374225e-01 -2.66230330e-02
      2.60515714e+00 -1.34002909e-01 2.07660004e-01 -8.95422935e-01
      -9.83279109e-01 -1.19608629e+00</_>
    <_>
      -8.39449942e-01 -1.09293890e+00 -7.29059637e-01 -1.02343392e+00
      -7.76077747e-01 1.73428094e+00 3.74844074e-01 1.73019242e+00
      -2.20037311e-01 2.01081425e-01 -3.28383476e-01 7.24413514e-01
      -1.89373419e-01 4.07552332e-01 1.92904368e-01 8.86467993e-02
      2.49474812e+00 7.22926781e-02 3.70755494e-01 -9.53928888e-01
      -1.00503552e+00 -1.23399329e+00</_>
    <_>
      -8.22710097e-01 -1.10735929e+00 -7.39348531e-01 -9.56901908e-01
      -6.37688160e-01 1.87535775e+00 4.90742683e-01 1.72083378e+00
      -2.53411740e-01 1.63395986e-01 -3.95736367e-01 7.08295822e-01
      -1.55817762e-01 4.25679892e-01 2.06093431e-01 6.17356412e-02
      2.47312093e+00 -2.56923325e-02 1.38997480e-01 -9.79267180e-01
      -1.01179850e+00 -1.17852163e+00</_>
    <_>
      -7.99732447e-01 -1.05168605e+00 -7.02827215e-01 -9.35399771e-01
      -6.54374599e-01 1.79538965e+00 5.97640932e-01 1.96206665e+00
      -2.84196556e-01 1.63505614e-01 -4.17925835e-01 5.66631258e-01
      -1.38838738e-01 3.22430074e-01 2.79791862e-01 1.03952484e-02
      2.42139745e+00 -7.10050613e-02 9.56719443e-02 -1.01486206e+00
      -9.81914282e-01 -1.16215801e+00</_>
    <_>
      -7.75467455e-01 -1.14206910e+00 -6.60776556e-01 -9.84368920e-01
      -6.81257069e-01 1.84399283e+00 4.10355389e-01 1.68834066e+00
      -2.53213942e-01 1.91213727e-01 -5.03076375e-01 7.15515494e-01
      -1.36474833e-01 3.50961894e-01 2.54703403e-01 3.76097374e-02
      2.51985049e+00 -4.02163267e-02 2.83376068e-01 -8.84014308e-01
      -1.01508975e+00 -1.21989501e+00</_>
    <_>
      -8.33895743e-01 -1.13183498e+00 -7.40024507e-01 -9.64499235e-01
      -6.80844843e-01 1.82510948e+00 4.51732159e-01 1.80062115e+00
      -1.82919070e-01 1.94606587e-01 -5.35956621e-01 8.96600306e-01
      -2.15569943e-01 4.35406744e-01 3.23169380e-01 -6.04783483e-02
      2.32711649e+00 -7.88444281e-02 2.92559296e-01 -9.48173821e-01
      -9.66539919e-01 -1.20734012e+00</_>
    <_>
      -8.05563271e-01 -1.09025240e+00 -7.95609176e-01 -8.95150781e-01
      -7.51810849e-01 1.98956573e+00 5.16349614e-01 1.76858342e+00
      -8.48818719e-02 2.45596334e-01 -3.47671837e-01 7.65203714e-01
      -2.87946820e-01 5.14358819e-01 2.55550563e-01 7.43848160e-02
      2.26430082e+00 -1.46597698e-01 2.66047306e-02 -9.84738231e-01
      -1.03849077e+00 -1.19178486e+00</_>
    <_>
      -7.86733031e-01 -1.12626851e+00 -7.21280396e-01 -9.29910600e-01
      -7.11053431e-01 1.78637290e+00 4.30276603e-01 1.96841311e+00
      -9.12989303e-02 2.89144337e-01 -3.28564703e-01 7.32994974e-01
      -1.36297643e-01 3.25961500e-01 2.07328603e-01 2.32431144e-02
      2.32022095e+00 -1.48570076e-01 1.74602300e-01 -9.52409923e-01
      -1.07104278e+00 -1.25512826e+00</_>
    <_>
      -8.43864202e-01 -1.11618268e+00 -7.78744578e-01 -9.28717077e-01
      -7.13624954e-01 1.74908078e+00 4.66421515e-01 1.93259978e+00
      -1.53201565e-01 3.32235664e-01 -2.95280695e-01 7.46633172e-01
      -3.28288712e-02 3.85515362e-01 2.55276114e-01 -1.90155935e-02
      2.34107733e+00 -1.51228264e-01 7.57038295e-02 -1.00172997e+00
      -1.04119635e+00 -1.20892882e+00</_>
    <_>
      -8.64200115e-01 -1.09267533e+00 -7.88721681e-01 -1.01107705e+00
      -6.76524043e-01 1.71838582e+00 4.43412513e-01 1.83466351e+00
      -1.50215074e-01 2.49616578e-01 -2.31813341e-01 7.53486037e-01
      -2.27733359e-01 5.02571344e-01 3.12855273e-01 6.39804825e-02
      2.38749194e+00 -1.15535714e-01 1.57818556e-01 -9.98837292e-01
      -1.02535677e+00 -1.24159229e+00</_>
    <_>
      -7.65488386e-01 -9.97179687e-01 -7.46885419e-01 -8.72032583e-01
      -9.07547295e-01 6.88924193e-01 1.58355255e-02 1.65289533e+00
      1.05467975e-01 5.50247550e-01 1.17429221e+00 2.27524877e+00
      -4.84291464e-02 1.98482737e-01 -2.95341134e-01 -4.86444145e-01
      1.92855716e+00 -5.18576503e-01 -2.98261773e-02 -9.73503232e-01
      -9.70120847e-01 -9.78576779e-01</_>
    <_>
      -7.86462188e-01 -9.99815583e-01 -7.64336646e-01 -8.16489697e-01
      -9.39760506e-01 2.77143896e-01 -2.39645436e-01 1.44821680e+00
      -1.99704319e-02 5.37909031e-01 1.11949456e+00 2.57029772e+00
      -1.06892176e-01 2.29732007e-01 7.48532638e-02 -5.25696993e-01
      1.99345326e+00 -3.85041773e-01 1.47982091e-02 -9.17635024e-01
      -8.90768290e-01 -8.73383939e-01</_>
    <_>
      -9.67612386e-01 -1.01714611e+00 -8.40025663e-01 -8.65543008e-01
      -9.51101184e-01 1.92676470e-01 -2.44120479e-01 1.42051125e+00
      2.00590529e-02 2.79735684e-01 1.12330902e+00 2.66785908e+00
      -3.09755839e-02 2.97747910e-01 2.39208117e-01 -5.12803197e-01
      1.84379900e+00 -3.46189916e-01 2.13690698e-01 -8.29518497e-01
      -8.38524640e-01 -8.55035841e-01</_>
    <_>
      -8.74271154e-01 -1.00314450e+00 -8.22721839e-01 -7.59043276e-01
      -9.07626629e-01 3.76558185e-01 -1.73806682e-01 1.78961635e+00
      3.69390734e-02 4.03849065e-01 9.90601659e-01 2.27781892e+00
      -7.37403184e-02 2.73459554e-01 1.20327696e-01 -5.42232811e-01
      2.11407399e+00 -4.46714938e-01 -1.11644298e-01 -9.01561975e-01
      -8.89432728e-01 -8.77303481e-01</_>
    <_>
      -9.75982606e-01 -1.03769159e+00 -8.98846507e-01 -8.84961963e-01
      -9.12730992e-01 2.44311169e-01 -2.66330093e-01 1.26250827e+00
      5.60968241e-04 4.55664307e-01 9.44707394e-01 2.36401272e+00
      5.76417670e-02 2.93678373e-01 -7.04043135e-02 -3.03355426e-01
      2.36401272e+00 -3.04898113e-01 2.41225764e-01 -8.61821175e-01
      -8.58735681e-01 -8.52564812e-01</_>
    <_>
      -9.67348635e-01 -9.93273795e-01 -9.25580382e-01 -8.56446624e-01
      -9.19819236e-01 4.94935066e-02 -2.76011229e-01 1.41056406e+00
      -2.97222398e-02 4.98862803e-01 1.18443918e+00 2.60456133e+00
      2.78891958e-02 3.40431303e-01 1.58955231e-01 -4.80531871e-01
      1.90746272e+00 -3.35062981e-01 5.66949137e-02 -8.17558885e-01
      -8.17558885e-01 -8.20439458e-01</_>
    <_>
      -8.74855995e-01 -9.93195355e-01 -7.77757049e-01 -7.71688402e-01
      -8.67270112e-01 5.43698967e-01 -7.07553551e-02 1.84088016e+00
      3.99981625e-02 6.01351500e-01 1.05195117e+00 2.26113653e+00
      -1.02615915e-01 1.43165767e-01 -1.17787667e-01 -4.89494562e-01
      1.97135687e+00 -4.81908709e-01 -1.08684599e-01 -9.40094352e-01
      -9.27956998e-01 -9.29474175e-01</_>
    <_>
      -9.96954918e-01 -1.00843668e+00 -9.35240567e-01 -9.45287049e-01
      -9.71121013e-01 -2.03279123e-01 -2.92262673e-01 1.04536092e+00
      4.78841364e-02 4.97107446e-01 1.06832445e+00 2.44326377e+00
      1.11033730e-01 3.72243464e-01 -6.65418943e-03 -3.12355697e-01
      2.34997439e+00 -1.97538257e-01 2.67472565e-01 -7.60143876e-01
      -7.64449537e-01 -8.08941305e-01</_>
    <_>
      -9.62391376e-01 -1.05439281e+00 -8.74989986e-01 -9.07190442e-01
      -8.79590034e-01 3.28696281e-01 -1.02177419e-01 1.32537901e+00
      8.22434202e-03 7.61103213e-01 9.61973190e-01 2.29752827e+00
      2.50912998e-02 3.04162562e-01 -1.51244864e-01 -3.61314952e-01
      2.26839423e+00 -3.36781234e-01 4.96250242e-02 -9.20990705e-01
      -8.55056286e-01 -9.24057424e-01</_>
    <_>
      -9.59721327e-01 -1.00558889e+00 -9.07935381e-01 -8.94618988e-01
      -9.07935381e-01 1.54416293e-01 -2.15483323e-01 1.42687094e+00
      -3.79315689e-02 5.86459100e-01 8.86817396e-01 2.27320123e+00
      -8.23194683e-02 3.77835602e-01 -6.45642877e-02 -3.67881984e-01
      2.38860989e+00 -2.98340797e-01 1.60334691e-01 -8.35435092e-01
      -8.28037083e-01 -8.48751426e-01</_>
    <_>
      -9.50259686e-01 -9.70228374e-01 -8.08942556e-01 -8.42735827e-01
      -8.53488207e-01 4.82879937e-01 5.16676065e-03 1.54736626e+00
      2.51354519e-02 8.20812106e-01 1.10191023e+00 2.36454773e+00
      8.23882502e-03 2.43255287e-01 -1.54583037e-01 -3.57342333e-01
      1.92216384e+00 -5.10947883e-01 -2.02200755e-01 -9.59475994e-01
      -9.34899151e-01 -9.76372600e-01</_>
    <_>
      -9.50665653e-01 -9.96884167e-01 -7.97100723e-01 -8.19464564e-01
      -8.43319297e-01 4.70182300e-01 -2.48034932e-02 1.71211970e+00
      6.31608590e-02 7.20657170e-01 1.19178832e+00 2.43372560e+00
      2.29059737e-02 1.22797690e-01 -9.48767960e-02 -4.55679774e-01
      1.70168340e+00 -4.60152507e-01 -1.48549944e-01 -9.49174702e-01
      -9.53647494e-01 -9.44701910e-01</_>
    <_>
      -9.44625556e-01 -9.95913267e-01 -8.56703877e-01 -8.43515575e-01
      -8.75753582e-01 2.17406422e-01 -1.40141860e-01 1.76482868e+00
      7.85962772e-03 5.96935153e-01 8.48977387e-01 2.20150661e+00
      -7.85967186e-02 2.48178989e-01 -5.80816157e-02 -3.83391947e-01
      2.27623987e+00 -3.18915993e-01 -4.34280448e-02 -9.05060828e-01
      -8.42050254e-01 -8.75753582e-01</_>
    <_>
      -1.00249708e+00 -1.02592552e+00 -9.42461729e-01 -9.43925977e-01
      -9.42461729e-01 1.24995999e-01 -2.79144406e-01 1.54827297e+00
      6.38955971e-03 8.02956104e-01 9.53776538e-01 2.13837647e+00
      1.51352927e-01 2.81673580e-01 -7.70741627e-02 -3.27465504e-01
      2.27016139e+00 -3.27465504e-01 1.32317364e-01 -8.06284010e-01
      -8.07748258e-01 -9.27818954e-01</_>
    <_>
      -6.31698251e-01 -8.45058024e-01 -6.97549999e-01 -8.72715771e-01
      -6.33015275e-01 -8.38096836e-04 -8.24943259e-02 3.23152721e-01
      -7.59091675e-02 4.37734723e-01 8.72356534e-01 3.63549757e+00
      -1.37809858e-01 -4.43003215e-02 -4.92092460e-01 -2.56343067e-01
      1.29775918e+00 -2.26051241e-01 5.74706554e-01 -6.77794456e-01
      -6.31698251e-01 -8.35838795e-01</_>
    <_>
      -7.47866273e-01 -9.05912876e-01 -7.62725353e-01 -8.97807896e-01
      -6.30344391e-01 1.61239445e-01 -1.15679808e-01 3.92230690e-01
      -3.46302874e-02 5.32716513e-01 8.13688338e-01 3.54640865e+00
      4.50685099e-02 9.23473388e-02 -4.70946968e-01 -2.89936334e-01
      1.29998565e+00 -2.33201638e-01 5.11103332e-01 -6.85728252e-01
      -7.28954673e-01 -8.91053796e-01</_>
    <_>
      -8.86989355e-01 -8.97414804e-01 -8.50500405e-01 -9.14356053e-01
      -7.91857481e-01 -2.45826483e-01 -2.21066117e-01 2.18104392e-01
      -4.12277691e-02 4.04458672e-01 4.83952343e-01 3.39785504e+00
      5.12977615e-02 1.46429688e-01 -4.10026729e-01 -1.35056451e-01
      1.69981611e+00 2.39310805e-02 8.77511740e-01 -5.78136504e-01
      -5.44253945e-01 -7.86644757e-01</_>
    <_>
      -8.07339132e-01 -9.15576339e-01 -8.49578023e-01 -9.03696656e-01
      -8.04699183e-01 -2.64833122e-01 -3.13671887e-01 1.86595172e-01
      -2.12034523e-01 2.39393800e-01 2.59193301e-01 3.48254991e+00
      7.04382136e-02 2.27514133e-01 -3.94189805e-01 -1.02477364e-01
      1.56199968e+00 7.30781034e-02 1.10265148e+00 -5.32786250e-01
      -3.96829724e-01 -7.05701768e-01</_>
    <_>
      -8.64286602e-01 -8.84396911e-01 -8.36634934e-01 -8.81883144e-01
      -7.83845305e-01 -4.49511290e-01 -4.21859622e-01 -6.23877123e-02
      -2.78573632e-01 4.44483720e-02 2.59377420e-01 3.33248520e+00
      1.07293136e-01 2.11615399e-01 -3.86666566e-01 -1.05122089e-01
      1.80033040e+00 2.22927421e-01 1.26866400e+00 -3.94207925e-01
      -2.66004652e-01 -6.31761074e-01</_>
    <_>
      -3.00895244e-01 -8.49152207e-01 -5.99234521e-01 -9.95978892e-01
      -6.47656083e-01 6.69097900e-01 1.22402862e-01 9.81494963e-01
      6.61713928e-02 7.65941024e-01 6.26924217e-01 3.27449012e+00
      -9.31511447e-02 -1.65002510e-01 -5.19573271e-01 -5.91424584e-01
      9.87743020e-01 -3.86804461e-01 6.73783779e-01 -9.41309392e-01
      -9.85044956e-01 -1.09282196e+00</_>
    <_>
      -4.50300545e-01 -9.01154876e-01 -6.86389804e-01 -1.00168324e+00
      -6.08708858e-01 5.61075568e-01 1.46776959e-01 1.04086995e+00
      1.74193725e-01 6.92067027e-01 4.16375697e-01 3.34540606e+00
      -1.46776559e-02 -1.31545216e-02 -4.97518390e-01 -4.94472086e-01
      8.59614253e-01 -4.82286781e-01 7.88025916e-01 -8.96585405e-01
      -9.57511723e-01 -1.01996112e+00</_>
    <_>
      -6.44288957e-01 -8.72388721e-01 -7.56876647e-01 -9.79127765e-01
      -7.13011265e-01 5.35688996e-01 5.90188019e-02 9.27552760e-01
      1.43825158e-01 7.97418952e-01 5.73705554e-01 3.32260084e+00
      5.02457768e-02 5.02457768e-02 -5.27314663e-01 -4.38121796e-01
      1.09277880e+00 -4.42508310e-01 5.29840171e-01 -8.29985559e-01
      -8.79699647e-01 -9.99598265e-01</_>
    <_>
      -4.74792629e-01 -1.13241434e+00 -7.17074335e-01 -1.21621108e+00
      -5.58589280e-01 9.22425926e-01 3.34524550e-02 1.37237751e+00
      -4.76614267e-01 3.66817415e-01 -4.23785985e-01 1.73671103e+00
      2.98090689e-02 1.95580736e-01 -5.69519281e-01 -3.50919276e-01
      2.32146597e+00 -9.95292664e-02 1.64016271e+00 -7.58972645e-01
      -7.64437675e-01 -1.07594275e+00</_>
    <_>
      -4.59951967e-01 -1.07765734e+00 -7.33099163e-01 -1.15978003e+00
      -6.11700416e-01 8.84360671e-01 1.31461211e-02 1.32710910e+00
      -4.54596162e-01 3.20213586e-01 -3.67117584e-01 1.56455088e+00
      -4.04121876e-02 8.63423795e-02 -5.01013339e-01 -3.83185148e-01
      2.59286976e+00 -6.54059872e-02 1.60918272e+00 -7.50951946e-01
      -7.54522502e-01 -1.03838134e+00</_>
    <_>
      -1.62704825e-01 -1.10852468e+00 -6.45226657e-01 -1.20464456e+00
      -3.49177361e-01 1.41750646e+00 2.56377995e-01 1.85004604e+00
      -3.56866956e-01 4.63997036e-01 -5.08736432e-01 1.09646606e+00
      -4.15937603e-02 -5.69729395e-02 -5.52951634e-01 -5.56796372e-01
      2.19223285e+00 -2.01152787e-01 1.42519617e+00 -8.97060871e-01
      -9.06672835e-01 -1.15273976e+00</_>
    <_>
      -6.37647510e-01 -1.09785008e+00 -7.96338022e-01 -1.15956306e+00
      -6.35884285e-01 8.85781825e-01 9.45727061e-03 1.45354128e+00
      -3.53767723e-01 4.69659925e-01 -4.17243987e-01 1.75505340e+00
      1.08198136e-01 1.59331724e-01 -5.37143469e-01 -3.87269080e-01
      2.25757360e+00 -1.42180383e-01 1.63515389e+00 -8.21023226e-01
      -7.32861817e-01 -1.01497841e+00</_>
    <_>
      -4.18134689e-01 -1.16788757e+00 -6.94851518e-01 -1.19967258e+00
      -4.76095647e-01 1.47774923e+00 2.19435737e-01 1.54505861e+00
      -4.89183575e-01 3.40966702e-01 -4.64877397e-01 1.38987303e+00
      -6.84992597e-02 4.74225469e-02 -5.71450770e-01 -4.87313896e-01
      2.27424479e+00 1.75072290e-02 1.41043973e+00 -8.03294539e-01
      -7.95815706e-01 -1.08562040e+00</_>
    <_>
      -2.05375507e-01 -1.04229307e+00 -6.52096152e-01 -1.21186459e+00
      -4.62467790e-01 1.37729216e+00 1.13710754e-01 1.72190523e+00
      -3.76770377e-01 5.56784749e-01 -4.26000804e-01 1.56327379e+00
      -2.30902344e-01 -3.94506939e-02 -5.75515509e-01 -5.46341896e-01
      2.12121892e+00 -2.69192755e-01 1.37911546e+00 -8.08904231e-01
      -8.78191531e-01 -1.10793364e+00</_>
    <_>
      -2.79894292e-01 -1.16881299e+00 -5.68351388e-01 -1.24730468e+00
      -4.15292531e-01 1.44692338e+00 3.99059027e-01 1.74911654e+00
      -3.46612275e-01 6.65930748e-01 -3.52499187e-01 1.59213293e+00
      -6.99289814e-02 3.99593897e-02 -6.90013528e-01 -5.86012006e-01
      1.88647711e+00 -2.70082831e-01 1.20948601e+00 -8.96054268e-01
      -8.99978876e-01 -1.19824731e+00</_>
    <_>
      -9.22314763e-01 -9.27121520e-01 -8.40599895e-01 -9.22314763e-01
      -8.35793138e-01 5.26121438e-01 -3.69537711e-01 7.58447945e-01
      9.83200520e-02 7.36016572e-01 1.68454993e+00 2.90706873e+00
      4.29986238e-01 1.19149305e-01 -3.10254306e-01 -3.35890353e-01
      1.28879368e+00 -4.92911130e-01 -2.50971019e-01 -7.81316578e-01
      -7.36453474e-01 -8.22975159e-01</_>
    <_>
      -9.26861763e-01 -9.36728358e-01 -8.57795596e-01 -9.40017223e-01
      -8.67662191e-01 5.10372043e-01 -3.69399250e-01 7.04415023e-01
      8.61084089e-02 7.29081511e-01 1.63845241e+00 2.96879792e+00
      4.67616647e-01 1.25574768e-01 -3.56243789e-01 -3.28288466e-01
      1.23885536e+00 -4.74642903e-01 -1.49045348e-01 -7.34463215e-01
      -7.29529917e-01 -7.98596025e-01</_>
    <_>
      -1.78487480e-01 -1.01586795e+00 -5.98270893e-01 -1.16454124e+00
      -5.47984302e-01 1.77612913e+00 3.85596514e-01 1.57716918e+00
      -4.58342999e-01 2.21618623e-01 -7.73180604e-01 8.11938941e-01
      -8.88461620e-02 2.85023361e-01 2.06313998e-01 -3.18415254e-01
      2.56540942e+00 -4.73052077e-02 5.69251716e-01 -9.61208582e-01
      -1.00493598e+00 -1.24106419e+00</_>
    <_>
      -3.48036885e-01 -1.00336862e+00 -4.60077405e-01 -1.04142010e+00
      -6.22853398e-01 1.87586296e+00 1.55088797e-01 1.73634076e+00
      -3.52264762e-01 2.88269103e-01 -6.33423269e-01 9.39372897e-01
      -3.24783146e-01 3.07294816e-01 2.24849865e-01 -3.71290594e-01
      2.47834516e+00 -9.85880420e-02 4.32019234e-01 -9.86456811e-01
      -9.73772943e-01 -1.22110784e+00</_>
    <_>
      -4.77993160e-01 -1.01688206e+00 -5.70312738e-01 -1.10920167e+00
      -6.36868715e-01 1.79779291e+00 2.47681975e-01 1.57236111e+00
      -3.34146321e-01 2.34800234e-01 -5.48843026e-01 9.23976958e-01
      -1.32331327e-01 3.74353081e-01 3.57177347e-01 -3.64203811e-01
      2.51058626e+00 -1.30184263e-01 5.84756076e-01 -1.03405786e+00
      -1.04693961e+00 -1.20152128e+00</_>
    <_>
      -3.13836753e-01 -1.02219510e+00 -4.55508500e-01 -1.15344977e+00
      -5.72179258e-01 1.74665248e+00 2.65350193e-01 1.53206158e+00
      -4.30507630e-01 6.74265921e-02 -7.18017757e-01 8.44537437e-01
      -1.51331142e-01 2.92434573e-01 2.48682961e-01 -2.40917519e-01
      2.75085449e+00 -8.88288990e-02 4.36189562e-01 -9.57609475e-01
      -9.15941358e-01 -1.16386676e+00</_>
    <_>
      -1.86608911e-01 -1.07349634e+00 -4.32845503e-01 -1.11271989e+00
      -6.00634992e-01 1.84429801e+00 3.27655047e-01 1.71355283e+00
      -4.04517293e-01 2.03447282e-01 -6.42037570e-01 1.00317144e+00
      -2.95563161e-01 2.62282580e-01 2.38312632e-01 -2.78130502e-01
      2.47405362e+00 -1.88787952e-01 3.29834223e-01 -9.55825806e-01
      -1.03427279e+00 -1.19116688e+00</_>
    <_>
      -2.94165730e-01 -9.79500771e-01 -4.72005755e-01 -1.11396527e+00
      -6.19482994e-01 1.85726595e+00 2.74055153e-01 1.84425318e+00
      -3.18022251e-01 2.76223898e-01 -5.99963963e-01 9.63727951e-01
      -2.03076869e-01 3.41287404e-01 3.04418147e-01 -4.89356071e-01
      2.31921649e+00 -2.18258366e-01 4.17194784e-01 -1.05757689e+00
      -1.03155160e+00 -1.20071661e+00</_>
    <_>
      -2.60249645e-01 -1.11009467e+00 -5.65108061e-01 -1.09547818e+00
      -5.19170463e-01 1.66495228e+00 4.01668996e-01 1.76100361e+00
      -5.10818183e-01 1.57364622e-01 -8.13588560e-01 8.21371317e-01
      -2.03871712e-01 3.57819527e-01 2.93089300e-01 -2.83218473e-01
      2.55447054e+00 -9.11158323e-02 4.91456062e-01 -9.32608604e-01
      -9.34696674e-01 -1.18317723e+00</_>
    <_>
      -2.63794661e-01 -1.01816452e+00 -4.72538054e-01 -1.06776690e+00
      -5.42808115e-01 1.99518144e+00 5.17443240e-01 1.84844100e+00
      -4.16735291e-01 6.89549148e-02 -7.35017419e-01 7.42720842e-01
      -2.55527586e-01 2.71497935e-01 3.43834788e-01 -3.27864319e-01
      2.36719942e+00 -2.30726272e-01 2.65297741e-01 -9.80962694e-01
      -9.47894394e-01 -1.16077137e+00</_>
    <_>
      -4.16609675e-01 -1.01527059e+00 -4.84064490e-01 -1.13331640e+00
      -6.37945592e-01 1.82415271e+00 3.65443736e-01 1.66183984e+00
      -4.33473378e-01 1.08272523e-01 -7.28587925e-01 8.06007683e-01
      -2.47972861e-01 4.72949743e-01 4.58193988e-01 -3.00671846e-01
      2.51767182e+00 -1.69978365e-01 4.05495018e-01 -9.14088488e-01
      -9.49923873e-01 -1.18812346e+00</_>
    <_>
      -4.14682597e-01 -1.02636302e+00 -5.35766065e-01 -1.12865770e+00
      -5.23240209e-01 1.73559356e+00 2.49189049e-01 1.72306764e+00
      -3.54140759e-01 1.80296764e-01 -7.19478965e-01 9.73602414e-01
      -2.41407812e-01 3.24344426e-01 4.34989631e-01 -3.20738435e-01
      2.53516221e+00 -2.89423704e-01 4.39164996e-01 -9.47032452e-01
      -9.38681841e-01 -1.15579712e+00</_>
    <_>
      -4.32983071e-01 -1.03209281e+00 -4.71635371e-01 -1.10080791e+00
      -5.29613733e-01 1.94627678e+00 3.55092973e-01 1.85394084e+00
      -4.41572458e-01 3.61535043e-01 -5.12434959e-01 1.01647556e+00
      -1.36649296e-01 2.90672660e-01 3.70124429e-01 -4.39425141e-01
      2.15456939e+00 -3.08437079e-01 3.93745273e-01 -1.07074499e+00
      -1.03209281e+00 -1.23394334e+00</_>
    <_>
      -8.74709904e-01 -1.09829664e+00 -8.50077510e-01 -1.04145253e+00
      -7.55337298e-01 1.56200659e+00 2.79225081e-01 1.96938932e+00
      7.45863169e-02 6.22184396e-01 -1.30052447e-01 1.75148690e+00
      1.77421942e-02 3.26595098e-01 1.42799199e-01 -4.08588409e-01
      1.79127789e+00 -4.14272845e-01 7.64810964e-02 -9.29659188e-01
      -1.01303053e+00 -1.09829664e+00</_>
    <_>
      -7.62197375e-01 -1.04949939e+00 -6.90371871e-01 -9.77673888e-01
      -7.66079843e-01 1.57504308e+00 4.45247442e-01 1.94970047e+00
      -7.30608776e-02 4.70483512e-01 -3.21538210e-01 1.46051061e+00
      -5.94722442e-02 3.24891299e-01 8.22375715e-02 -3.77833933e-01
      2.14188242e+00 -3.15714478e-01 1.13297239e-01 -9.21378195e-01
      -1.02620459e+00 -1.22226882e+00</_>
    <_>
      -8.33687305e-01 -1.09116769e+00 -7.02043176e-01 -1.01953781e+00
      -7.09786952e-01 1.51073909e+00 2.96903193e-01 1.74111652e+00
      -4.18867990e-02 4.90497530e-01 -3.16790640e-01 1.70820522e+00
      -6.70540184e-02 2.87223518e-01 1.01372972e-01 -4.34883058e-01
      2.17863941e+00 -2.43224770e-01 2.40760908e-01 -8.80149901e-01
      -9.71139193e-01 -1.24410713e+00</_>
    <_>
      -6.74867690e-01 -1.06663263e+00 -7.84801722e-01 -9.50702190e-01
      -7.72808969e-01 1.47184396e+00 1.32647663e-01 1.82962930e+00
      1.67172179e-02 5.34406543e-01 -3.12539786e-02 2.14543986e+00
      -1.39189228e-01 1.84616521e-01 1.20654814e-01 -5.68931282e-01
      1.83162808e+00 -4.96974498e-01 1.34646446e-01 -8.68751407e-01
      -9.66692567e-01 -1.08062422e+00</_>
    <_>
      -5.34800887e-01 -1.16401339e+00 -7.22040653e-01 -1.07910240e+00
      -9.22343552e-01 1.30058360e+00 -1.38547225e-03 1.60539246e+00
      -1.23308964e-01 7.56282091e-01 3.97043109e-01 2.24331379e+00
      1.38549963e-02 9.44115594e-02 -1.01536974e-01 -5.87053895e-01
      1.83617640e+00 -3.43206793e-01 2.55524814e-01 -9.94191408e-01
      -9.02748704e-01 -1.02684951e+00</_>
    <_>
      -6.94108963e-01 -1.10758293e+00 -8.06677759e-01 -1.07294643e+00
      -9.56047952e-01 1.22605562e+00 2.95192981e-03 1.57458627e+00
      -1.44253433e-01 7.73615658e-01 3.12516302e-01 2.35823846e+00
      -7.87196215e-03 6.78955391e-02 -1.22014675e-02 -5.36079586e-01
      1.74776900e+00 -4.04027730e-01 4.61886436e-01 -8.97598743e-01
      -8.84609997e-01 -1.00150847e+00</_>
    <_>
      -5.28656065e-01 -1.11547232e+00 -7.22790778e-01 -1.14635742e+00
      -8.75010014e-01 1.35974526e+00 9.34574232e-02 1.57152843e+00
      -1.62447453e-01 7.33219385e-01 1.75082192e-01 2.24658775e+00
      -8.02210998e-03 1.81700438e-01 -1.93332449e-01 -5.88220119e-01
      1.84949398e+00 -3.76436889e-01 3.86865556e-01 -9.30161893e-01
      -9.10307229e-01 -1.04046571e+00</_>
    <_>
      7.05706999e-02 -1.12388849e+00 -4.82197106e-01 -1.20319867e+00
      -6.52834177e-01 1.69042110e+00 1.33057564e-01 1.71926105e+00
      -4.19710368e-01 3.08501333e-01 -3.54820222e-01 2.16628218e+00
      -1.62553042e-01 5.85540459e-02 -2.34653249e-01 -7.27337658e-01
      1.66638756e+00 -4.89407152e-01 7.53118932e-01 -9.67671514e-01
      -7.27337658e-01 -1.02054501e+00</_>
    <_>
      9.62604210e-02 -1.09757972e+00 -6.06546044e-01 -1.17670357e+00
      -7.50830829e-01 1.49023736e+00 2.00983167e-01 1.79742408e+00
      -3.01686287e-01 4.61626649e-01 -1.10858060e-01 2.14184570e+00
      -1.71364620e-01 -4.80243601e-02 -4.80243601e-02 -7.46176481e-01
      1.81371427e+00 -5.04150391e-01 4.26719040e-01 -9.18387294e-01
      -8.85806859e-01 -1.06267202e+00</_>
    <_>
      -9.14145947e-01 -1.02784646e+00 -8.60741138e-01 -9.24482346e-01
      -8.67632091e-01 9.32626188e-01 -4.54178965e-03 1.78882551e+00
      1.95765477e-02 7.27620721e-01 9.39517200e-01 2.65019321e+00
      5.91994710e-02 1.14326984e-01 4.74378616e-01 -6.28171921e-01
      8.89557838e-01 -6.35062814e-01 -3.89964841e-02 -8.91750395e-01
      -9.31373298e-01 -8.71077538e-01</_>
    <_>
      -9.64080870e-01 -1.02569008e+00 -9.20305908e-01 -9.62459564e-01
      -8.10057878e-01 7.28550911e-01 -9.02029276e-02 1.75807309e+00
      8.48968700e-02 6.29652083e-01 1.10631263e+00 2.50224733e+00
      1.72446817e-01 2.27570862e-01 8.29071224e-01 -5.65242350e-01
      9.36076760e-01 -5.52271962e-01 -2.08557487e-01 -9.67323482e-01
      -9.51110482e-01 -9.57595646e-01</_>
    <_>
      -9.82561111e-01 -1.03699791e+00 -8.52242827e-01 -9.39671576e-01
      -8.27498853e-01 7.74261832e-01 -1.08273715e-01 1.81350911e+00
      1.44114926e-01 7.08277881e-01 1.08438647e+00 2.45025444e+00
      6.16350546e-02 1.40815780e-01 7.14876175e-01 -5.88307023e-01
      1.02500081e+00 -5.85007787e-01 -1.11572862e-01 -9.34722781e-01
      -1.00235629e+00 -9.47919548e-01</_>
    <_>
      -8.68794799e-01 -1.00992441e+00 -8.98414612e-01 -9.31519091e-01
      -8.58340740e-01 8.63092542e-01 -5.51213510e-02 1.93637502e+00
      7.90389776e-02 7.08024204e-01 8.96197140e-01 2.43119979e+00
      1.01689383e-01 2.18426257e-01 5.47728777e-01 -6.12670600e-01
      1.09308171e+00 -6.21382356e-01 -1.42238453e-01 -9.41973150e-01
      -9.38488483e-01 -9.95985746e-01</_>
    <_>
      -8.67766082e-01 -1.06189859e+00 -8.83365989e-01 -9.54432368e-01
      -8.86832654e-01 8.65560055e-01 -9.81692597e-02 1.61435688e+00
      -8.03633034e-03 7.58093834e-01 1.03022599e+00 2.62488604e+00
      6.12966940e-02 1.73962936e-01 6.26360953e-01 -5.97367227e-01
      9.81692791e-01 -6.35500371e-01 4.74300869e-02 -9.63099003e-01
      -9.23232496e-01 -9.04165924e-01</_>
    <_>
      -1.01945806e+00 -1.07956016e+00 -9.57686543e-01 -9.05932009e-01
      -8.75881016e-01 1.26608896e+00 2.84422219e-01 2.32288313e+00
      1.67557225e-01 3.79583836e-01 -1.94724575e-01 1.39964902e+00
      4.40141335e-02 4.49702919e-01 2.76074737e-01 -2.44809553e-01
      1.92387235e+00 -2.61504591e-01 -2.10964158e-02 -8.87567520e-01
      -9.62695062e-01 -1.10293317e+00</_>
    <_>
      -9.95855212e-01 -1.06352723e+00 -9.16340590e-01 -8.33442390e-01
      -8.48668575e-01 1.42511106e+00 4.30332482e-01 2.35729313e+00
      1.51185438e-01 4.89545524e-01 -2.32853249e-01 1.31514406e+00
      8.68970007e-02 3.25440854e-01 3.69427711e-01 -3.05600673e-01
      1.78546464e+00 -3.52971047e-01 -1.29653484e-01 -9.31566834e-01
      -1.01615679e+00 -1.10920584e+00</_>
    <_>
      -1.01305211e+00 -1.09276056e+00 -8.69230568e-01 -8.27643633e-01
      -8.72696161e-01 1.31408513e+00 4.96208191e-01 2.41267419e+00
      6.99416697e-02 3.83576691e-01 -2.05571920e-01 1.19278979e+00
      1.44923981e-02 3.38524193e-01 2.81342059e-01 -1.77847281e-01
      1.89630270e+00 -1.84778437e-01 -1.14994729e-02 -9.64534044e-01
      -1.04944074e+00 -1.13088191e+00</_>
    <_>
      -1.02254820e+00 -1.07048249e+00 -9.96101737e-01 -9.41555798e-01
      -9.61390674e-01 1.02209747e+00 2.98124284e-01 2.24028969e+00
      2.74983555e-01 5.29531240e-01 -1.92789048e-01 1.42044806e+00
      1.42751053e-01 3.09694648e-01 3.93992901e-01 -2.10971043e-01
      2.02871752e+00 -2.04359412e-01 -8.86559263e-02 -9.03538942e-01
      -9.81225550e-01 -1.08701158e+00</_>
    <_>
      -1.03323185e+00 -1.08092189e+00 -9.12303686e-01 -8.81645799e-01
      -9.14006889e-01 1.17243111e+00 5.13286889e-01 2.22501755e+00
      2.37366229e-01 3.31043035e-01 -2.70191729e-01 1.29676569e+00
      1.93547215e-02 3.44668746e-01 4.46861595e-01 -3.48539621e-01
      2.02233505e+00 -1.20308883e-01 7.21543878e-02 -9.54884052e-01
      -1.03834152e+00 -1.12690878e+00</_>
    <_>
      -9.92314935e-01 -1.07141256e+00 -9.78851557e-01 -9.50241804e-01
      -8.94705176e-01 1.16351449e+00 3.99465710e-01 2.31127095e+00
      2.90075421e-01 5.52612066e-01 -4.43684496e-03 1.39070964e+00
      4.77339029e-02 3.20368141e-01 3.80953491e-01 -3.10729504e-01
      1.83668530e+00 -2.87168592e-01 -1.03729531e-01 -9.67071056e-01
      -1.02092469e+00 -1.11180282e+00</_>
    <_>
      -9.90734458e-01 -1.07247877e+00 -9.00293946e-01 -9.88995194e-01
      -8.28985095e-01 1.38158906e+00 4.84141141e-01 2.35208511e+00
      1.69338778e-01 5.05012095e-01 -1.19375154e-01 1.14679170e+00
      1.20640069e-01 2.49343857e-01 2.96303242e-01 -8.28510448e-02
      1.83031309e+00 -3.24605495e-01 -4.58528707e-03 -9.85516727e-01
      -1.07769644e+00 -1.15944076e+00</_>
    <_>
      -9.83972847e-01 -1.09065330e+00 -9.22762692e-01 -1.00670803e+00
      -8.49310517e-01 1.14264214e+00 3.18928599e-01 2.38433361e+00
      3.17179769e-01 5.00810325e-01 -6.23230450e-02 1.36649656e+00
      5.48506379e-02 3.20677549e-01 2.36732244e-01 -2.94921577e-01
      1.83868885e+00 -2.16222867e-01 6.35949150e-02 -9.29758132e-01
      -1.06442046e+00 -1.12388170e+00</_>
    <_>
      -1.03047872e+00 -1.11179090e+00 -9.56086755e-01 -9.92417693e-01
      -9.18025672e-01 8.88142943e-01 2.96467096e-01 2.37944341e+00
      2.68786371e-01 6.75347328e-01 8.54014233e-02 1.47981894e+00
      1.21732369e-01 4.12380219e-01 4.07190055e-01 -2.41577476e-01
      1.73413587e+00 -2.67528087e-01 -1.48154929e-01 -9.42246318e-01
      -1.00798810e+00 -1.13255143e+00</_>
    <_>
      -1.02061570e+00 -1.13586211e+00 -8.62816811e-01 -1.01175058e+00
      -8.71681869e-01 1.26303613e+00 5.80422878e-01 2.25415516e+00
      2.13407367e-01 4.75814492e-01 -7.73681998e-02 1.15488183e+00
      5.56084067e-02 3.32199812e-01 2.63051957e-01 -1.57154232e-01
      1.96337962e+00 -2.12117910e-01 -1.88585334e-02 -9.62105989e-01
      -1.06139517e+00 -1.16423047e+00</_>
    <_>
      -1.01871669e+00 -1.09460688e+00 -1.00146890e+00 -9.82496321e-01
      -9.08330858e-01 1.23901796e+00 3.62830639e-01 2.38771987e+00
      2.80041188e-01 5.19785285e-01 5.75449206e-02 1.11310899e+00
      1.31710276e-01 3.69729728e-01 2.80041188e-01 -1.83924049e-01
      1.83406639e+00 -1.83924049e-01 -4.07674797e-02 -9.56624627e-01
      -1.08425820e+00 -1.12047851e+00</_>
    <_>
      -9.70865965e-01 -1.11065030e+00 -9.79602456e-01 -1.05823123e+00
      -8.88742626e-01 9.93104279e-01 2.81951398e-01 2.34726548e+00
      3.34370583e-01 6.17433906e-01 1.63134724e-01 1.19229710e+00
      6.00437559e-02 3.60580146e-01 1.54398233e-01 -2.47481853e-01
      1.97683680e+00 -1.56622052e-01 6.17910363e-02 -9.63876724e-01
      -1.03027427e+00 -1.13685989e+00</_>
    <_>
      -8.63226473e-01 -1.01903903e+00 -9.41889167e-01 -1.03114104e+00
      -9.29787219e-01 6.10185683e-01 1.74515560e-01 2.31656051e+00
      3.39404613e-01 9.23323691e-01 3.07637036e-01 8.15918922e-01
      8.52636918e-02 1.47286221e-01 -1.30645894e-02 -1.50724232e-01
      2.45119452e+00 -2.50565320e-01 -9.17272344e-02 -8.90455842e-01
      -9.79707718e-01 -1.00996256e+00</_>
    <_>
      -8.59863043e-01 -1.03104389e+00 -9.46955085e-01 -1.00701857e+00
      -9.16923344e-01 5.42618752e-01 2.18276083e-01 2.24691939e+00
      2.79841185e-01 9.39037681e-01 3.74441117e-01 9.30028141e-01
      1.05657093e-01 1.89745918e-01 -2.19777897e-02 -2.30698287e-01
      2.47365904e+00 -2.75745898e-01 -1.25587210e-01 -9.06412244e-01
      -9.72482026e-01 -1.00551701e+00</_>
    <_>
      -9.73931730e-01 -1.06553841e+00 -9.59716916e-01 -1.05132365e+00
      -9.80249465e-01 5.40738225e-01 -6.73410073e-02 1.60685098e+00
      2.58020878e-01 1.06826651e+00 9.30856466e-01 1.09985518e+00
      1.86946630e-01 2.28011757e-01 -4.99673039e-02 -2.80563533e-01
      2.58451581e+00 -1.36835754e-01 5.74326899e-04 -8.77586722e-01
      -9.84987736e-01 -1.07659447e+00</_>
    <_>
      -9.85047519e-01 -1.04382157e+00 -9.62442100e-01 -9.76005375e-01
      -9.33808625e-01 5.85274518e-01 1.34673417e-01 1.87227523e+00
      3.10995579e-01 1.09314239e+00 8.38454962e-01 9.51481819e-01
      1.79884166e-01 1.54264733e-01 1.41112180e-02 -1.83309257e-01
      2.49769163e+00 -3.05378467e-01 -2.85787046e-01 -9.36822653e-01
      -9.76005375e-01 -1.04382157e+00</_>
    <_>
      -9.82717216e-01 -1.05919492e+00 -9.63987947e-01 -1.00612879e+00
      -9.46819484e-01 3.01796019e-01 -5.87417223e-02 1.64717937e+00
      2.12832212e-01 9.96338367e-01 9.43272293e-01 1.16646230e+00
      1.78495258e-01 1.44158378e-01 -1.19186062e-02 -2.05454051e-01
      2.66480112e+00 -1.30537048e-01 -1.81616824e-02 -8.70341778e-01
      -9.53062594e-01 -1.04826951e+00</_>
    <_>
      -7.19288886e-01 -1.20233870e+00 -6.74562037e-01 -1.03014040e+00
      -6.74562037e-01 1.84355891e+00 2.75883228e-01 1.58637953e+00
      -2.45184377e-01 4.10063833e-01 -2.45184377e-01 1.43654478e+00
      8.13221035e-04 2.75883228e-01 -2.09402919e-01 -3.03329319e-01
      2.36239028e+00 -1.53494418e-01 1.79720521e-01 -9.29504991e-01
      -8.48996699e-01 -1.13524842e+00</_>
    <_>
      -7.03918755e-01 -1.11427760e+00 -7.23255038e-01 -1.05841720e+00
      -7.31848955e-01 1.80764925e+00 2.50004470e-01 1.57561374e+00
      -2.33402625e-01 2.92973995e-01 -1.92581564e-01 1.12873101e+00
      -3.51563445e-03 2.71489173e-01 -1.62502855e-01 -1.88284546e-01
      2.58754611e+00 -1.17384903e-01 2.56449819e-01 -9.35954094e-01
      -8.95133078e-01 -1.10998070e+00</_>
    <_>
      -5.97867727e-01 -1.03325629e+00 -5.06436110e-01 -1.04196405e+00
      -5.10789990e-01 2.01881766e+00 2.90325046e-01 1.59649074e+00
      -2.47379884e-01 5.18904090e-01 -3.56227070e-01 1.15239429e+00
      -1.29824936e-01 2.18485966e-01 -2.93095648e-01 -3.10511172e-01
      2.41719842e+00 -1.53771341e-01 1.29231244e-01 -1.02890241e+00
      -9.74478841e-01 -1.15734208e+00</_>
    <_>
      -8.29461455e-01 -1.06726313e+00 -6.75098896e-01 -9.90081847e-01
      -6.98044717e-01 2.14931750e+00 2.69849926e-01 1.64242446e+00
      -6.80787563e-02 4.84705806e-01 -1.99495479e-01 1.24191654e+00
      -6.39068633e-02 1.75980896e-01 -2.26613298e-01 -1.99495479e-01
      2.20146728e+00 -2.41215065e-01 8.41976926e-02 -9.85909879e-01
      -9.08728659e-01 -1.09646678e+00</_>
    <_>
      -6.96952105e-01 -1.08955741e+00 -6.52143896e-01 -1.01914454e+00
      -6.39341533e-01 2.08755875e+00 3.40038180e-01 1.45384252e+00
      -1.10177763e-01 3.42171878e-01 -3.08614194e-01 1.21059775e+00
      -9.31079686e-02 1.94944814e-01 -1.63520962e-01 -2.44602412e-01
      2.44602442e+00 -1.16578966e-01 6.69213682e-02 -1.05328405e+00
      -8.71917486e-01 -1.08315623e+00</_>
    <_>
      -8.19628835e-01 -1.16494596e+00 -7.67308056e-01 -1.06867576e+00
      -7.54751086e-01 1.74827504e+00 2.62364954e-01 1.57875586e+00
      -2.37821743e-01 3.60728025e-01 -9.76020470e-02 1.12042570e+00
      4.88961637e-02 4.90483612e-01 -1.26901612e-01 -1.45737186e-01
      2.47658062e+00 -1.41551465e-01 2.70736277e-01 -9.38920259e-01
      -9.43105876e-01 -1.15029621e+00</_>
    <_>
      -8.60593140e-01 -1.10943246e+00 -7.07461357e-01 -9.54173744e-01
      -6.62797868e-01 1.85537004e+00 3.92110318e-01 1.41511607e+00
      -2.69334108e-01 3.51700485e-01 -3.99070859e-01 1.23646224e+00
      7.30856806e-02 2.70880878e-01 -1.73626781e-01 -2.20416978e-01
      2.55509734e+00 -8.42998326e-02 2.47485831e-01 -9.73315179e-01
      -8.73354137e-01 -1.10943246e+00</_>
    <_>
      -9.74073768e-01 -1.14368594e+00 -7.26478934e-01 -8.57099831e-01
      -7.06983328e-01 2.16082740e+00 4.08168048e-01 1.77481341e+00
      -1.80600688e-01 3.49681169e-01 -4.12598938e-01 1.10221338e+00
      1.24063697e-02 1.95665523e-01 -1.33811131e-01 -2.31289312e-01
      2.18422222e+00 -1.41609401e-01 7.28429109e-02 -9.07788515e-01
      -8.14209402e-01 -1.03061116e+00</_>
    <_>
      -9.41200793e-01 -1.09887421e+00 -6.62712574e-01 -9.57582414e-01
      -6.99571311e-01 2.13036036e+00 6.51915669e-01 1.82934737e+00
      -2.18360052e-01 4.24620062e-01 -3.61699581e-01 1.07783866e+00
      7.44600024e-04 2.66946554e-01 -1.91739902e-01 -2.73648173e-01
      2.07711983e+00 -2.92077512e-01 4.16987352e-02 -9.47343946e-01
      -8.12195241e-01 -1.04358613e+00</_>
    <_>
      -7.29705691e-01 -1.05251443e+00 -6.34518504e-01 -1.05872226e+00
      -5.37262022e-01 1.84241748e+00 4.14609730e-01 1.64997387e+00
      -3.67580503e-01 3.25630397e-01 -4.06896979e-01 8.40882778e-01
      -7.99497515e-02 2.07681134e-01 -1.91691250e-01 -1.27543360e-01
      2.67840934e+00 3.38610038e-02 1.10424675e-01 -9.46980715e-01
      -8.93179297e-01 -1.07734585e+00</_>
    <_>
      -1.03191948e+00 -1.11845183e+00 -7.55016148e-01 -9.06928420e-01
      -7.60784984e-01 1.94671440e+00 3.83364320e-01 1.92556226e+00
      -3.77595425e-02 4.64127839e-01 -2.51205832e-01 1.10446668e+00
      1.80056710e-02 2.29529053e-01 -1.46842711e-02 -2.30053589e-01
      2.16016078e+00 -2.74281114e-01 -6.99251331e-03 -9.28080738e-01
      -8.47317278e-01 -1.06845534e+00</_>
    <_>
      -9.28761959e-01 -1.10074198e+00 -7.68376231e-01 -1.05243289e+00
      -7.76105642e-01 1.98909998e+00 4.85724747e-01 1.67026079e+00
      -1.92533180e-01 4.70265895e-01 -2.36977443e-01 8.45143616e-01
      -7.02677341e-03 3.17609549e-01 3.16203944e-02 -2.00262606e-01
      2.36591005e+00 -8.62534419e-02 9.53883082e-02 -9.22964931e-01
      -9.30694342e-01 -1.06789184e+00</_>
    <_>
      -9.18153286e-01 -1.09317744e+00 -7.33184636e-01 -1.00964320e+00
      -6.15838945e-01 2.02742267e+00 5.47673523e-01 1.70323038e+00
      -2.06123382e-01 4.00494158e-01 -2.57835090e-01 9.13633108e-01
      -5.29773645e-02 3.14971000e-01 -6.68997616e-02 -1.34522632e-01
      2.33371496e+00 -1.42478272e-01 -7.23241316e-03 -9.44009125e-01
      -9.65887129e-01 -1.09317744e+00</_>
    <_>
      -1.08621132e+00 -1.11160445e+00 -9.10152137e-01 -9.76174355e-01
      -9.33852434e-01 7.20088184e-01 -1.78829357e-01 1.16531491e+00
      1.58053160e-01 8.03039134e-01 8.80911469e-01 2.06761837e+00
      4.20449018e-01 5.40643394e-01 1.14038326e-01 -1.95758075e-01
      2.07777548e+00 -4.49689627e-01 1.41585991e-02 -9.45702553e-01
      -1.04219651e+00 -1.13191903e+00</_>
    <_>
      -1.05970204e+00 -1.09152806e+00 -9.39097941e-01 -9.65898812e-01
      -8.50319862e-01 1.05254495e+00 -6.97433278e-02 1.47298419e+00
      2.21716657e-01 8.09661746e-01 9.57066715e-01 2.02072787e+00
      4.26073611e-01 5.31602085e-01 1.81515306e-01 -2.82475531e-01
      1.63713992e+00 -5.22008717e-01 -2.67400056e-01 -1.00945032e+00
      -1.09320319e+00 -1.16020548e+00</_>
    <_>
      -1.04755569e+00 -1.08913660e+00 -9.99044597e-01 -1.03542793e+00
      -9.48800981e-01 7.99330235e-01 2.14204509e-02 1.41957879e+00
      2.62243330e-01 8.56503963e-01 8.47841144e-01 1.83885312e+00
      4.97868568e-01 5.65437555e-01 2.05069512e-01 -1.79553941e-01
      1.89602709e+00 -5.13933837e-01 -8.42643306e-02 -9.90381896e-01
      -1.11685717e+00 -1.20521665e+00</_>
    <_>
      -1.05776441e+00 -1.09782887e+00 -1.00100625e+00 -1.00935304e+00
      -9.59272385e-01 3.39486212e-01 -2.54804373e-01 9.15413857e-01
      4.06715423e-02 6.93389595e-01 9.83857393e-01 1.91034985e+00
      3.37816894e-01 5.01413643e-01 2.97752261e-01 -6.78365156e-02
      2.50130177e+00 -2.96538234e-01 1.00768320e-01 -8.07361066e-01
      -9.70957875e-01 -1.09949827e+00</_>
    <_>
      -1.06796288e+00 -1.07142675e+00 -9.13822293e-01 -9.95222390e-01
      -9.13822293e-01 1.04843938e+00 7.55744381e-03 1.34806097e+00
      1.68625742e-01 8.47537041e-01 9.86090541e-01 1.88495529e+00
      4.14557904e-01 3.76455694e-01 9.24214199e-02 -2.29715168e-01
      1.88495529e+00 -5.17213345e-01 -4.61319871e-02 -9.86562788e-01
      -1.10779703e+00 -1.20998001e+00</_>
    <_>
      -1.06009555e+00 -1.07019746e+00 -1.00285101e+00 -1.00285101e+00
      -9.92748976e-01 4.98976588e-01 -2.38467902e-01 1.21453345e+00
      1.67294875e-01 6.26934826e-01 1.08825862e+00 2.17422128e+00
      3.44079524e-01 4.31629986e-01 2.90202320e-01 -2.03111008e-01
      2.00417137e+00 -3.68110001e-01 9.32137147e-02 -8.54688644e-01
      -1.00621831e+00 -1.13417673e+00</_>
    <_>
      -1.04674160e+00 -1.09358799e+00 -1.01327991e+00 -1.00491452e+00
      -9.93202925e-01 4.27244574e-01 -1.53315216e-01 1.00445831e+00
      1.67916745e-01 6.28014565e-01 1.06803536e+00 2.13211608e+00
      3.98802191e-01 4.42302287e-01 1.67916745e-01 -1.11488171e-01
      2.18900084e+00 -3.54085207e-01 1.47839755e-01 -8.99510324e-01
      -9.99895275e-01 -1.10362649e+00</_>
    <_>
      -9.71157193e-01 -1.07796693e+00 -8.62596393e-01 -9.62402284e-01
      -9.16876793e-01 7.18538463e-01 -2.73789577e-02 1.57301688e+00
      7.41779059e-02 8.32352340e-01 1.08974624e+00 2.02301860e+00
      1.91493556e-01 4.55891490e-01 9.86915678e-02 -2.46251479e-01
      1.73235595e+00 -4.09092605e-01 1.09197497e-01 -1.07621598e+00
      -1.13750029e+00 -1.21104145e+00</_>
    <_>
      -1.01386726e+00 -1.06306469e+00 -7.62790918e-01 -8.79846811e-01
      -8.81543279e-01 9.08223987e-01 1.75815579e-02 1.76154423e+00
      7.18683228e-02 7.21613169e-01 1.04054797e+00 2.03297830e+00
      1.82138294e-01 4.09464270e-01 7.86541700e-02 -2.84388721e-01
      1.65127432e+00 -4.28587973e-01 -1.84297472e-01 -1.08681524e+00
      -1.11395860e+00 -1.17672765e+00</_>
    <_>
      -1.01895845e+00 -1.08000004e+00 -9.16672707e-01 -8.93575907e-01
      -8.90276372e-01 8.38683605e-01 -2.69957539e-03 1.88793790e+00
      1.30931810e-01 6.27512753e-01 7.69393086e-01 2.09910846e+00
      2.48065531e-01 3.68498832e-01 2.03521699e-01 -3.44202191e-01
      1.64707124e+00 -4.38239127e-01 -3.40452380e-02 -1.01070964e+00
      -1.07010138e+00 -1.12124431e+00</_>
    <_>
      -1.04489005e+00 -1.10044813e+00 -9.10203815e-01 -9.70812619e-01
      -9.40508246e-01 5.41040957e-01 -1.62235331e-02 1.43838835e+00
      1.36982098e-01 7.38019645e-01 9.43416119e-01 2.16906142e+00
      1.62235796e-01 3.96253169e-01 5.95374554e-02 -1.25656188e-01
      1.96366489e+00 -3.12533379e-01 4.27016243e-02 -9.72496212e-01
      -1.06004226e+00 -1.13748693e+00</_>
    <_>
      -9.86074805e-01 -1.11507916e+00 -8.90193224e-01 -9.96534586e-01
      -9.00653005e-01 6.07302785e-01 -8.65311921e-02 1.57134867e+00
      1.15691841e-01 8.60081673e-01 9.96059179e-01 1.88339972e+00
      4.10309792e-01 3.49294245e-01 3.20133902e-02 -1.24883763e-01
      1.95487511e+00 -3.81149143e-01 6.16494827e-02 -1.07149661e+00
      -1.10461926e+00 -1.18481123e+00</_>
    <_>
      -1.01437700e+00 -1.07095647e+00 -8.13777268e-01 -9.62941229e-01
      -9.08076286e-01 7.15581536e-01 6.40610531e-02 1.90032029e+00
      6.74900636e-02 8.21882308e-01 8.90463412e-01 2.02205181e+00
      1.85792521e-01 3.45243543e-01 1.97794139e-01 -3.61141950e-01
      1.62942493e+00 -4.12577748e-01 -2.33798660e-02 -1.06409836e+00
      -1.09324527e+00 -1.11553419e+00</_>
    <_>
      -9.27493811e-01 -1.07767844e+00 -9.32556212e-01 -1.06755364e+00
      -9.17368948e-01 3.33044827e-01 -1.42821178e-01 1.52102244e+00
      1.58008188e-02 6.75600886e-01 9.97907162e-01 1.92263973e+00
      2.21671909e-01 4.05605942e-01 4.61752824e-02 -1.64758235e-01
      2.23144627e+00 -2.86255896e-01 2.26734340e-01 -9.64618087e-01
      -9.96679962e-01 -1.11986518e+00</_>
    <_>
      -9.97414172e-01 -1.11203182e+00 -8.65163028e-01 -9.12773430e-01
      -8.15789223e-01 1.29317570e+00 3.42730910e-01 1.99146187e+00
      8.88086632e-02 4.89088744e-01 -2.74441212e-01 1.07628393e+00
      1.17022239e-01 4.43241745e-01 2.79250264e-01 -9.28162262e-02
      2.39350557e+00 -2.99128056e-01 -7.34194741e-02 -9.25116837e-01
      -1.02386439e+00 -1.12261188e+00</_>
    <_>
      -9.60446715e-01 -1.07584429e+00 -7.07260787e-01 -8.62272561e-01
      -7.76154935e-01 1.35267341e+00 4.13991004e-01 1.81081939e+00
      9.01886374e-02 4.13991004e-01 -1.52663141e-01 7.36070991e-01
      -9.75477621e-02 3.81266296e-01 1.95252225e-01 -1.07881933e-01
      2.74605727e+00 -1.93999603e-01 -9.06583518e-02 -9.38056111e-01
      -1.02934086e+00 -1.14818323e+00</_>
    <_>
      -1.00042427e+00 -1.11586416e+00 -7.87582040e-01 -8.47105682e-01
      -8.34479451e-01 1.45808434e+00 3.41564268e-01 1.98117125e+00
      1.07077025e-01 4.26340431e-01 -2.95154494e-03 1.06486726e+00
      -8.05127174e-02 2.69414365e-01 1.07077025e-01 -1.40036464e-01
      2.42128611e+00 -2.17597634e-01 -6.24752939e-02 -9.69760537e-01
      -9.66153026e-01 -1.15193915e+00</_>
    <_>
      -9.38036442e-01 -1.13566327e+00 -8.77228200e-01 -1.00264525e+00
      -8.52524877e-01 1.56650352e+00 2.30622217e-01 1.91805136e+00
      3.48956771e-02 3.73141557e-01 -1.15224689e-01 1.20925510e+00
      4.24967073e-02 4.85256761e-01 2.24921420e-01 -8.29203427e-02
      2.23919487e+00 -3.03350329e-01 3.48956771e-02 -9.39936697e-01
      -9.79842126e-01 -1.13186276e+00</_>
    <_>
      -1.03310275e+00 -1.11672795e+00 -8.97879064e-01 -9.72607970e-01
      -8.74748647e-01 1.54326510e+00 3.70732963e-01 1.79769909e+00
      1.14519566e-01 3.20913702e-01 -4.91722561e-02 8.44015896e-01
      -2.24833470e-02 3.83187801e-01 3.19134474e-01 -5.27308285e-02
      2.51651978e+00 -2.03967810e-01 -1.71455443e-02 -9.17450905e-01
      -9.45919037e-01 -1.10605240e+00</_>
    <_>
      -9.79504585e-01 -1.14037466e+00 -8.56046140e-01 -9.08422470e-01
      -8.89716625e-01 1.41109872e+00 1.93350077e-01 1.75528586e+00
      4.42141574e-03 5.67466497e-01 -7.78842643e-02 1.17353487e+00
      6.61505610e-02 3.80408287e-01 2.28891149e-01 -2.01342553e-01
      2.50351834e+00 -2.59330601e-01 1.37742935e-02 -9.06551898e-01
      -9.49575245e-01 -1.12915111e+00</_>
    <_>
      -8.14191341e-01 -1.05915952e+00 -6.90838575e-01 -8.36777031e-01
      -7.32535303e-01 1.32623947e+00 3.34205389e-01 1.99686158e+00
      -9.14484188e-02 3.77639413e-01 -2.09589154e-01 5.68749428e-01
      -2.98194647e-01 1.69155955e-01 2.12589994e-01 -1.74841896e-01
      2.82905841e+00 -2.02165917e-02 5.79647832e-02 -9.23645198e-01
      -8.90635312e-01 -1.13039136e+00</_>
    <_>
      -1.04143155e+00 -1.12430370e+00 -8.89793277e-01 -9.62085903e-01
      -8.42185855e-01 9.33393180e-01 1.68148607e-01 1.91904247e+00
      4.82485667e-02 5.68403304e-01 2.31625110e-01 1.34422731e+00
      3.06161568e-02 4.11475331e-01 2.22808957e-01 -1.45707443e-01
      2.42861795e+00 -2.07420722e-01 2.70897374e-02 -9.51506495e-01
      -9.97350693e-01 -1.17191112e+00</_>
    <_>
      -7.58507192e-01 -1.04468048e+00 -6.41981542e-01 -8.88741732e-01
      -7.51652777e-01 1.44177115e+00 4.20458227e-01 1.96956396e+00
      9.19116009e-03 3.96467626e-01 -1.69024482e-01 4.59871233e-01
      -2.39282653e-01 2.47383356e-01 1.42852947e-01 -1.21043354e-01
      2.76982093e+00 -1.70738071e-01 9.19116009e-03 -9.67567921e-01
      -9.84704018e-01 -1.12864745e+00</_>
    <_>
      -8.12103033e-01 -1.04484081e+00 -7.86647320e-01 -9.24835384e-01
      -7.92102098e-01 1.18435133e+00 1.91578984e-01 1.90802062e+00
      4.42995280e-02 6.02506697e-01 -2.97528110e-03 8.89792442e-01
      -6.47963062e-02 2.02488512e-01 8.97562057e-02 -1.97529659e-01
      2.75169516e+00 -2.24803641e-01 6.97552711e-02 -9.37563241e-01
      -1.00483906e+00 -1.14120889e+00</_>
    <_>
      -8.40580165e-01 -1.05618775e+00 -7.53983736e-01 -9.67823982e-01
      -7.87561893e-01 1.17764771e+00 2.16250166e-01 1.76615012e+00
      -1.87973976e-02 5.96214294e-01 3.42208855e-02 9.56738353e-01
      -8.06520283e-02 2.97544837e-01 4.65918332e-02 -2.00826675e-01
      2.83358407e+00 -2.30870321e-01 9.47899278e-03 -9.28943932e-01
      -9.81962144e-01 -1.08623135e+00</_>
    <_>
      -1.05540454e+00 -1.09037280e+00 -9.15531635e-01 -8.75318229e-01
      -8.71821404e-01 1.21053624e+00 3.81789446e-01 2.13719416e+00
      1.71980068e-01 6.70277297e-01 2.82129973e-01 1.15109038e+00
      1.03792027e-01 3.74795794e-01 3.32833946e-01 -2.40644947e-01
      2.04452848e+00 -3.28065544e-01 -1.89941064e-01 -1.02917838e+00
      -1.09212124e+00 -1.17254806e+00</_>
    <_>
      -9.96269822e-01 -1.09717786e+00 -9.12759662e-01 -8.41428041e-01
      -9.49295342e-01 1.13497889e+00 1.41556069e-01 2.02401400e+00
      9.98010114e-02 6.42616928e-01 4.82555777e-01 1.20457065e+00
      2.37242412e-03 3.55550796e-01 3.05096805e-01 -1.10714182e-01
      2.27106500e+00 -3.33407968e-01 -3.05571258e-01 -9.89310622e-01
      -9.85831022e-01 -1.14241254e+00</_>
    <_>
      -9.96138453e-01 -1.10468256e+00 -9.16539490e-01 -8.58649313e-01
      -9.38248277e-01 1.04268074e+00 2.66590834e-01 1.88751543e+00
      4.76936363e-02 6.22977138e-01 3.04581225e-01 1.11142540e+00
      6.03571311e-02 4.05889004e-01 2.30409399e-01 -2.59847939e-01
      2.52068925e+00 -1.85676113e-01 -1.54921994e-01 -9.83474970e-01
      -9.76238728e-01 -1.12639129e+00</_>
    <_>
      -1.11410713e+00 -1.11043406e+00 -9.63511467e-01 -1.01126134e+00
      -8.60665679e-01 1.00892389e+00 -1.82985321e-01 1.07136583e+00
      5.57638146e-02 7.07732618e-01 9.51991379e-01 2.23021770e+00
      3.45935822e-01 2.44926587e-01 -8.74856934e-02 -3.04196447e-01
      2.04289150e+00 -3.61128956e-01 1.51263446e-01 -9.19434726e-01
      -9.19434726e-01 -9.76367176e-01</_>
    <_>
      -1.07345033e+00 -1.07712245e+00 -8.84332061e-01 -1.00735080e+00
      -8.51282299e-01 9.49930906e-01 -1.75597802e-01 1.15190184e+00
      1.71925128e-02 6.94713056e-01 9.35242116e-01 2.11218166e+00
      2.77918667e-01 2.77918667e-01 -6.17597513e-02 -3.29830199e-01
      2.19664216e+00 -3.90421420e-01 1.43883392e-01 -9.17381883e-01
      -9.63284373e-01 -1.02571177e+00</_>
    <_>
      -9.61759627e-01 -1.08558261e+00 -8.94219875e-01 -1.02179503e+00
      -8.69830489e-01 1.18638062e+00 -1.41901746e-01 1.28581405e+00
      7.76025653e-02 8.05531323e-01 1.07006216e+00 1.78673410e+00
      2.89602339e-01 2.70841360e-01 1.82664409e-01 -2.60096341e-01
      2.02687573e+00 -4.06432539e-01 -1.99549794e-02 -1.01804280e+00
      -1.10809588e+00 -1.19439662e+00</_>
    <_>
      -1.10188174e+00 -1.15526068e+00 -8.71800184e-01 -1.00432718e+00
      -8.97569299e-01 9.13633168e-01 -6.69328356e-03 1.48423564e+00
      1.40558913e-01 7.82946825e-01 9.83577967e-01 1.78242135e+00
      2.74926633e-01 3.35668117e-01 2.23388344e-01 -1.83395922e-01
      1.97200871e+00 -3.21444988e-01 2.09165309e-02 -1.06506872e+00
      -1.11844766e+00 -1.18839252e+00</_>
    <_>
      -1.12159455e+00 -1.11984658e+00 -9.85248864e-01 -1.00622511e+00
      -8.85611594e-01 1.03721285e+00 5.48243262e-02 1.46547818e+00
      2.26130500e-01 9.34079409e-01 8.78142715e-01 1.50218678e+00
      1.63201720e-01 4.20160919e-01 2.33122587e-01 -1.91646799e-01
      2.09651423e+00 -2.44087502e-01 -9.02614966e-02 -1.06041384e+00
      -1.12334263e+00 -1.18277538e+00</_>
    <_>
      -9.39771891e-01 -1.02043331e+00 -8.79275799e-01 -1.06809676e+00
      -7.89448380e-01 1.16475713e+00 -6.16626851e-02 1.36274421e+00
      2.66482562e-01 8.21946204e-01 1.11526048e+00 2.07769728e+00
      2.88481116e-01 2.22485453e-01 -7.44950920e-02 -4.75968868e-01
      1.70555520e+00 -6.29958808e-01 7.21619427e-02 -9.65436876e-01
      -1.07359648e+00 -1.11942685e+00</_>
    <_>
      -9.56943452e-01 -1.06314099e+00 -9.07506645e-01 -1.02469015e+00
      -7.90323079e-01 1.26038885e+00 -3.41230854e-02 1.41968524e+00
      2.22215936e-01 8.15457642e-01 1.01137376e+00 2.00377202e+00
      2.44187847e-01 2.05737039e-01 -3.77850160e-02 -3.45391840e-01
      1.77489793e+00 -4.44265455e-01 -1.12855785e-01 -9.95394289e-01
      -1.07961988e+00 -1.16567659e+00</_>
    <_>
      -1.07577288e+00 -1.13193560e+00 -9.31621671e-01 -1.03271472e+00
      -8.69842589e-01 9.55448270e-01 -1.95889071e-01 1.28119242e+00
      1.01773806e-01 8.05680871e-01 9.23622727e-01 1.76980889e+00
      2.60901749e-01 2.96471447e-01 1.97250560e-01 -2.72644848e-01
      2.21349502e+00 -2.96982020e-01 1.63552836e-01 -9.59703088e-01
      -1.05892396e+00 -1.14316821e+00</_>
    <_>
      -1.08102608e+00 -1.13011110e+00 -9.61040616e-01 -9.79220212e-01
      -8.86504173e-01 9.18731630e-01 -1.38826137e-02 1.58955944e+00
      2.24270314e-01 8.76918495e-01 9.67816710e-01 1.65137029e+00
      2.84263104e-01 4.89692807e-01 1.69731542e-01 -2.08404481e-01
      1.91133881e+00 -3.24754089e-01 -9.38729048e-02 -1.07557213e+00
      -1.13374698e+00 -1.19555771e+00</_>
    <_>
      -1.09754050e+00 -1.13834548e+00 -9.96415198e-01 -1.01060820e+00
      -8.75774384e-01 1.09528255e+00 1.10641137e-01 1.53526640e+00
      2.25959435e-01 7.83035815e-01 9.46255744e-01 1.48026836e+00
      2.45474875e-01 3.73212218e-01 1.47897795e-01 -9.16095227e-02
      2.02315187e+00 -2.51281112e-01 -4.19339351e-02 -1.06205797e+00
      -1.18092453e+00 -1.21995533e+00</_>
    <_>
      -8.63012195e-01 -1.08933580e+00 -9.12844896e-01 -1.10387039e+00
      -9.41913962e-01 1.44175136e+00 -9.68340710e-02 1.47912586e+00
      -4.28485759e-02 5.30227721e-01 7.50322223e-01 2.32420588e+00
      3.28820407e-01 7.96568692e-02 -3.45997632e-01 -4.66426730e-01
      1.71583116e+00 -4.10364896e-01 9.00386497e-02 -8.52630317e-01
      -7.61270404e-01 -8.52630317e-01</_>
    <_>
      -8.63654435e-01 -1.03330088e+00 -8.03066432e-01 -1.02724206e+00
      -8.83850396e-01 1.44272888e+00 -1.20441571e-01 1.41445434e+00
      1.09792829e-01 7.90398061e-01 8.91377985e-01 2.31721568e+00
      1.70380875e-01 1.82498410e-01 -2.84029216e-01 -4.51655984e-01
      1.52755189e+00 -5.50616384e-01 7.74792358e-02 -9.42418814e-01
      -9.50497210e-01 -1.01310480e+00</_>
    <_>
      -1.04917133e+00 -1.25251663e+00 -8.97699833e-01 -1.03257167e+00
      -8.81100237e-01 1.31419933e+00 6.92280084e-02 1.54451907e+00
      3.18788178e-02 7.08313346e-01 6.33614957e-01 1.64619160e+00
      2.26924330e-01 3.92920464e-01 -2.39939883e-01 -1.88066125e-01
      2.00930810e+00 -2.12965548e-01 3.76320839e-01 -1.01389718e+00
      -1.01804698e+00 -1.16744363e+00</_>
    <_>
      -1.01619971e+00 -1.14985001e+00 -8.53495121e-01 -1.02007365e+00
      -8.76738608e-01 1.37788308e+00 8.59305635e-02 1.57738996e+00
      4.13804650e-02 6.28279388e-01 6.12783670e-01 1.48635280e+00
      1.30480662e-01 2.35076547e-01 -2.18172178e-01 -2.18172178e-01
      2.29019141e+00 -2.14298204e-01 2.04085186e-01 -9.46469188e-01
      -1.00264108e+00 -1.15372396e+00</_>
    <_>
      -9.86075759e-01 -1.12733686e+00 -8.93247068e-01 -1.04459822e+00
      -9.84057784e-01 1.30235374e+00 -1.99049696e-01 1.42948878e+00
      2.69679781e-02 6.00084484e-01 5.83940327e-01 2.65846038e+00
      2.20697537e-01 1.86391309e-01 -3.52418959e-01 -4.10941362e-01
      1.43352497e+00 -4.79553878e-01 2.40877628e-01 -8.06472421e-01
      -7.33823836e-01 -6.65211320e-01</_>
    <_>
      -8.73021185e-01 -1.10078216e+00 -8.85444522e-01 -1.03245389e+00
      -8.66809487e-01 1.53503406e+00 -1.33833081e-01 1.45635295e+00
      2.97407210e-02 7.99986959e-01 7.58576035e-01 2.47920704e+00
      2.20231697e-01 1.87102839e-01 -3.05689245e-01 -4.98250812e-01
      1.31141412e+00 -5.31379640e-01 -2.20232233e-02 -8.68880093e-01
      -8.91656220e-01 -7.67422915e-01</_>
    <_>
      -1.05409014e+00 -1.19910204e+00 -9.11064684e-01 -1.01038790e+00
      -8.83254230e-01 1.31178868e+00 7.62080103e-02 1.59188008e+00
      6.42891750e-02 7.19822347e-01 7.43660033e-01 2.05472636e+00
      3.10610771e-01 2.33138666e-01 -1.72100022e-01 -2.81355560e-01
      1.69517636e+00 -4.80001956e-01 1.27856001e-01 -1.03819835e+00
      -9.46821034e-01 -9.52780426e-01</_>
    <_>
      -1.12085533e+00 -1.17674565e+00 -8.97293985e-01 -1.03329384e+00
      -8.39540660e-01 1.29547036e+00 1.01280078e-01 1.70533288e+00
      8.45130086e-02 7.27251887e-01 5.67032933e-01 1.52089465e+00
      2.81992197e-01 2.54047006e-01 -2.37788036e-01 -1.94938764e-01
      2.09656501e+00 -2.60144174e-01 2.41005912e-01 -9.58773375e-01
      -1.00534856e+00 -1.15066350e+00</_>
    <_>
      -6.16472125e-01 -1.16981387e+00 -8.41336131e-01 -1.24697316e+00
      -9.75813627e-01 1.21991742e+00 -3.44711244e-02 1.00607598e+00
      -1.62334993e-01 3.64552230e-01 2.69756615e-01 1.40289485e+00
      1.13233656e-01 3.77779603e-01 4.48926203e-02 -1.97607771e-01
      2.87773824e+00 -2.78574470e-02 4.13052380e-01 -8.69995236e-01
      -8.45745206e-01 -1.10147285e+00</_>
    <_>
      -7.60869503e-01 -1.08178842e+00 -8.74260843e-01 -1.17378521e+00
      -9.94070590e-01 1.12613356e+00 -1.06195033e-01 1.13469148e+00
      -1.27589554e-01 1.59097970e-01 2.36118481e-01 1.43635523e+00
      2.04026565e-01 3.34533632e-01 -3.13139483e-02 -2.28144139e-01
      2.91044283e+00 -4.84296158e-02 5.57037354e-01 -8.65703046e-01
      -7.97240317e-01 -1.00904679e+00</_>
    <_>
      -5.77919543e-01 -9.97811139e-01 -6.84524119e-01 -1.07613289e+00
      -8.95557761e-01 1.82829845e+00 2.22702712e-01 1.58680642e+00
      5.30055836e-02 4.55492288e-01 1.83541909e-01 1.18649542e+00
      -4.48965356e-02 2.35756397e-01 -9.92867202e-02 -3.16847056e-01
      2.46792626e+00 -3.62534702e-01 -2.53161378e-02 -1.01956713e+00
      -1.01956713e+00 -1.10006452e+00</_>
    <_>
      -7.56179452e-01 -1.07969081e+00 -9.24156487e-01 -1.11494529e+00
      -9.65632319e-01 1.35079181e+00 -1.15378149e-01 1.28650427e+00
      -1.90034598e-01 3.65741253e-01 3.92700493e-01 1.45655525e+00
      1.93616658e-01 4.11364704e-01 -2.62051485e-02 -2.66764909e-01
      2.70912457e+00 -1.83813319e-01 2.24723533e-01 -8.18393171e-01
      -8.72311771e-01 -1.07761705e+00</_>
    <_>
      -8.25607359e-01 -1.06419933e+00 -9.57917452e-01 -1.16180515e+00
      -1.02081895e+00 1.09831226e+00 1.81408543e-02 1.30870688e+00
      7.88711943e-04 3.02282363e-01 4.51944560e-01 1.46270728e+00
      2.37211764e-01 3.23972464e-01 1.69972166e-01 -2.92028725e-01
      2.69254065e+00 -2.13944092e-01 3.65183860e-01 -9.68762577e-01
      -8.55973601e-01 -1.07070637e+00</_>
    <_>
      -7.73138642e-01 -1.12395036e+00 -7.71012545e-01 -1.07292318e+00
      -9.32598531e-01 1.74845314e+00 2.15512425e-01 1.60600221e+00
      5.18002659e-02 4.23873305e-01 4.25999403e-01 1.26582134e+00
      1.81494340e-01 2.94179231e-01 -1.62359178e-02 -2.30975211e-01
      2.30549955e+00 -4.52092826e-01 -6.93891570e-02 -9.87877965e-01
      -9.43229198e-01 -1.14521170e+00</_>
    <_>
      -8.49947095e-01 -1.07458270e+00 -8.72826636e-01 -1.14946127e+00
      -8.10427904e-01 1.73960257e+00 1.46353528e-01 1.52536654e+00
      -5.95624372e-02 4.22988147e-01 3.50189567e-01 1.12601447e+00
      1.87952697e-01 1.62993193e-01 1.32361557e-02 -1.82280049e-01
      2.51542735e+00 -2.73798347e-01 4.44354452e-02 -9.24825668e-01
      -9.62264895e-01 -1.07458270e+00</_>
    <_>
      -7.93314278e-01 -1.03026068e+00 -8.57353866e-01 -1.12205064e+00
      -8.40276659e-01 1.76613331e+00 1.28855318e-01 1.51637924e+00
      3.06614228e-02 3.95686835e-01 2.99627542e-01 1.27729809e+00
      -9.89698432e-03 3.33781987e-01 3.27960439e-02 -1.72130615e-01
      2.41720223e+00 -3.81326497e-01 7.76236877e-02 -9.61951792e-01
      -9.74759698e-01 -1.13272393e+00</_>
    <_>
      -7.52786040e-01 -1.11244190e+00 -9.02642667e-01 -1.19807422e+00
      -9.06924248e-01 1.26171458e+00 1.14824828e-02 1.33022046e+00
      5.85803166e-02 4.67474759e-01 3.17618161e-01 1.41371202e+00
      1.31367847e-01 3.77560765e-01 -8.91355127e-02 -2.17583984e-01
      2.67678881e+00 -1.21247537e-01 2.38408163e-01 -9.39036429e-01
      -9.34754789e-01 -1.11030102e+00</_>
    <_>
      -5.87638021e-01 -1.12104678e+00 -7.17936337e-01 -9.88712490e-01
      -8.25839639e-01 1.46456063e+00 1.88044235e-01 2.01629233e+00
      -1.45845234e-01 5.76903164e-01 -3.18342410e-02 1.12456322e+00
      -6.03370480e-02 2.67444640e-01 9.23563987e-02 -2.76143640e-01
      2.35018182e+00 -1.27522066e-01 9.84640419e-02 -1.00499976e+00
      -1.06200528e+00 -1.22895002e+00</_>
    <_>
      -6.51775837e-01 -1.14116383e+00 -8.55687499e-01 -1.17378974e+00
      -7.94514000e-01 1.25071990e+00 1.76105529e-01 1.79924226e+00
      -3.07165056e-01 3.82056326e-01 -8.89796242e-02 1.04884756e+00
      -1.96496174e-02 3.29039246e-01 1.98535830e-01 -1.52192250e-01
      2.71684480e+00 -2.13365793e-01 3.10687244e-01 -9.00548041e-01
      -8.69961321e-01 -1.04328620e+00</_>
    <_>
      -6.05675876e-01 -1.07642496e+00 -8.27688515e-01 -1.12370539e+00
      -7.22849250e-01 1.67817628e+00 2.92652994e-01 1.90430033e+00
      -9.99803990e-02 5.16721308e-01 -7.12010562e-02 9.64857996e-01
      -2.80318502e-02 2.10426107e-01 2.95269657e-02 -1.22592822e-01
      2.39560628e+00 -2.54155964e-01 1.11753844e-01 -9.53084528e-01
      -1.01886606e+00 -1.19976532e+00</_>
    <_>
      -6.42452896e-01 -1.12277365e+00 -7.80284107e-01 -1.14574564e+00
      -8.61729741e-01 1.36445284e+00 1.57385737e-01 1.65682209e+00
      -1.66308686e-01 4.30959851e-01 -2.14340791e-01 1.06373036e+00
      -1.39160156e-01 3.57867539e-01 1.32325515e-01 -8.27746540e-02
      2.70935154e+00 -7.44212493e-02 3.43249053e-01 -9.53617275e-01
      -8.95143449e-01 -1.13739216e+00</_>
    <_>
      -6.15610003e-01 -1.13745904e+00 -7.30663300e-01 -1.18060398e+00
      -7.51208484e-01 1.58273029e+00 2.43180871e-01 1.78818262e+00
      -1.38960481e-01 4.38360572e-01 3.36194597e-02 1.08964467e+00
      2.74558589e-02 2.51398951e-01 8.70371163e-02 -2.41686687e-01
      2.46617532e+00 -2.64286458e-01 2.10308492e-01 -9.81315196e-01
      -9.97751355e-01 -1.17854941e+00</_>
    <_>
      -7.33033299e-01 -1.11078727e+00 -8.71477187e-01 -1.07320964e+00
      -8.39832902e-01 1.34758031e+00 2.10362747e-01 1.93893337e+00
      -1.55524597e-01 5.14939249e-01 -6.85027614e-02 1.05882585e+00
      6.59856424e-02 3.25073391e-01 7.98299387e-02 -2.14857727e-01
      2.51050878e+00 -1.65413409e-01 1.88607261e-01 -9.13010299e-01
      -9.44654644e-01 -1.15034270e+00</_>
    <_>
      -6.98293626e-01 -1.09968340e+00 -8.19689572e-01 -1.08597744e+00
      -8.60807538e-01 1.38893318e+00 1.82805926e-01 1.86864305e+00
      -9.91459638e-02 4.60841745e-01 -1.46137923e-01 9.64047551e-01
      -4.04059514e-02 2.49377817e-01 1.24065913e-01 -1.34389997e-01
      2.63617873e+00 -9.52299088e-02 1.92595884e-01 -9.27379489e-01
      -9.66539502e-01 -1.09380949e+00</_>
    <_>
      -7.44150817e-01 -1.11457014e+00 -7.46174991e-01 -1.04574907e+00
      -7.98802853e-01 1.58564484e+00 3.63058776e-01 1.93784678e+00
      -1.95053816e-02 4.29855645e-01 6.55087978e-02 1.19093573e+00
      -9.84472036e-02 2.09223375e-01 1.44450620e-01 -3.10982883e-01
      2.29207277e+00 -2.48234257e-01 9.78951752e-02 -9.78952110e-01
      -1.04170072e+00 -1.16922212e+00</_>
    <_>
      -7.73274779e-01 -1.11260056e+00 -8.78122628e-01 -1.05922353e+00
      -8.91466856e-01 1.02057707e+00 8.45714733e-02 1.96802068e+00
      -2.14721546e-01 4.92525071e-01 2.18014240e-01 1.24933624e+00
      6.93197362e-04 2.88548321e-01 1.47480264e-01 -1.74688652e-01
      2.52657366e+00 -1.15592562e-01 2.46609136e-01 -9.84876812e-01
      -9.27687049e-01 -1.11069429e+00</_>
    <_>
      -5.81866980e-01 -1.04187620e+00 -5.15882134e-01 -9.66464818e-01
      -5.17767370e-01 1.87842774e+00 4.43727136e-01 1.82941055e+00
      -4.40470755e-01 6.47852048e-02 -7.72280633e-01 7.64225364e-01
      -1.95383877e-01 3.45692426e-01 -1.04890302e-01 -2.44401291e-01
      2.57032681e+00 -6.34141341e-02 3.73971701e-01 -8.92938793e-01
      -8.87282908e-01 -1.04564679e+00</_>
    <_>
      -5.78877330e-01 -1.08360672e+00 -5.88472962e-01 -1.08744502e+00
      -5.28980136e-01 1.61084223e+00 4.44015294e-01 1.42660642e+00
      -5.04031539e-01 -1.46551384e-02 -6.63318753e-01 9.27634418e-01
      -1.68184951e-01 4.19066727e-01 1.02934269e-02 -1.14449516e-01
      2.88513994e+00 -1.50912866e-01 4.84316856e-01 -8.60988438e-01
      -8.24525118e-01 -1.03946686e+00</_>
    <_>
      -7.69597769e-01 -1.08690715e+00 -6.07949555e-01 -1.00708091e+00
      -6.47862732e-01 1.84670806e+00 4.65713739e-01 1.88462543e+00
      -2.50727057e-01 2.92091519e-01 -4.42310154e-01 8.54866803e-01
      -6.51309416e-02 2.48187140e-01 7.25692958e-02 -2.98622787e-01
      2.45338774e+00 -1.56931177e-01 1.62373900e-01 -9.27254677e-01
      -8.71376276e-01 -1.14877248e+00</_>
    <_>
      -6.09698951e-01 -1.09054005e+00 -5.88792801e-01 -1.03409338e+00
      -6.01336479e-01 1.83422828e+00 4.10520434e-01 1.61680448e+00
      -3.60915899e-01 1.30378261e-01 -5.51161706e-01 9.64533091e-01
      -2.62657076e-01 4.71148193e-01 -8.49548876e-02 -1.68579534e-01
      2.63702393e+00 -1.12132952e-01 2.62086898e-01 -9.04475451e-01
      -8.41756999e-01 -1.11562741e+00</_>
    <_>
      -8.06718886e-01 -1.10284495e+00 -7.57364631e-01 -9.76497829e-01
      -7.55390406e-01 1.45568347e+00 2.53412068e-01 1.55044377e+00
      -2.97382206e-01 1.80367604e-01 -4.07936007e-01 9.44372654e-01
      -9.79908183e-02 4.09371734e-01 1.19168222e-01 -1.43396810e-01
      2.86524343e+00 -2.29722038e-02 4.11345869e-01 -8.81737530e-01
      -8.69892478e-01 -1.06928396e+00</_>
    <_>
      -5.67881942e-01 -1.12275219e+00 -4.65926975e-01 -1.11294878e+00
      -4.42398936e-01 1.88099754e+00 5.53622544e-01 1.78884590e+00
      -4.73769665e-01 8.11005905e-02 -6.85522258e-01 9.55560267e-01
      -2.36528382e-01 4.10493404e-01 -1.52219474e-01 -1.22809365e-01
      2.44567108e+00 -2.01236233e-01 3.16381186e-01 -9.24724281e-01
      -8.71786118e-01 -1.05216801e+00</_>
    <_>
      -7.50893831e-01 -1.11882818e+00 -6.13164365e-01 -8.68947625e-01
      -6.26937270e-01 1.80890644e+00 5.00476658e-01 2.06272221e+00
      -1.78332806e-01 2.21082643e-01 -4.34116066e-01 9.23502862e-01
      -1.58657238e-01 2.36823142e-01 4.00667228e-02 -2.74743468e-01
      2.34801888e+00 -3.37705493e-01 1.81731373e-01 -9.59455550e-01
      -9.04363751e-01 -1.09718502e+00</_>
    <_>
      -6.01847351e-01 -1.04157341e+00 -6.07954621e-01 -1.04157341e+00
      -5.67239225e-01 1.94693542e+00 4.77110237e-01 1.72503662e+00
      -3.06660771e-01 2.49104068e-01 -5.02094686e-01 9.33122337e-01
      -1.72300130e-01 2.53175676e-01 -1.17334351e-01 -2.17086971e-01
      2.51898646e+00 -2.29301646e-01 2.34853670e-01 -1.02121580e+00
      -8.44103813e-01 -1.06803846e+00</_>
    <_>
      -7.38926589e-01 -1.13674033e+00 -6.80953801e-01 -1.00880027e+00
      -6.86950982e-01 1.59997797e+00 3.32571477e-01 1.82587206e+00
      -1.85186028e-01 2.68601447e-01 -3.35115790e-01 9.02304769e-01
      -1.71192557e-01 3.10581863e-01 1.27213662e-02 -1.99179381e-01
      2.64348912e+00 -4.12533693e-02 2.36616433e-01 -9.04848933e-01
      -8.58870447e-01 -1.18471789e+00</_>
    <_>
      -7.57473230e-01 -1.03282702e+00 -5.22504687e-01 -8.51093471e-01
      -5.75739741e-01 1.94282949e+00 4.76111710e-01 2.17229104e+00
      -4.14198846e-01 8.51093605e-02 -6.05110824e-01 7.33108580e-01
      -2.67343491e-01 2.87035465e-01 2.31964663e-01 -3.64635199e-01
      2.25489712e+00 -1.27830938e-01 1.95250839e-01 -8.93314421e-01
      -8.91478717e-01 -1.07504797e+00</_>
    <_>
      -5.74138701e-01 -1.09532285e+00 -5.22403479e-01 -9.47781742e-01
      -5.53061366e-01 1.81334460e+00 5.67867815e-01 2.16399431e+00
      -3.78694594e-01 -1.12354212e-01 -7.52337694e-01 7.09660470e-01
      -3.53785098e-01 3.11107874e-01 1.61650747e-01 -2.67559826e-01
      2.32686424e+00 -1.54508859e-01 4.08829898e-01 -9.19039965e-01
      -8.02156746e-01 -1.03017485e+00</_>
    <_>
      -6.57314181e-01 -1.10165441e+00 -6.38406098e-01 -1.00333238e+00
      -6.91348732e-01 1.66270924e+00 3.29688370e-01 2.08625054e+00
      -4.45543498e-01 1.48170710e-01 -5.62773705e-01 8.76132369e-01
      -1.92175031e-01 1.76532865e-01 2.63510138e-01 -2.67807394e-01
      2.45306778e+00 -4.65826541e-02 3.71286243e-01 -8.55849206e-01
      -8.55849206e-01 -1.04871178e+00</_>
    <_>
      -7.48009920e-01 -1.11101472e+00 -5.83523333e-01 -9.23840344e-01
      -5.81632733e-01 1.53211403e+00 3.12644750e-01 2.35832810e+00
      -3.39629531e-01 2.20002949e-01 -4.66303051e-01 1.00462270e+00
      -2.62112796e-01 2.52143979e-01 1.48158222e-01 -2.73456752e-01
      2.26001430e+00 -1.86486825e-01 2.88066328e-01 -9.61653352e-01
      -8.72792780e-01 -1.06563914e+00</_>
    <_>
      -8.13963413e-01 -1.13488758e+00 -6.77238226e-01 -1.04753542e+00
      -5.97481906e-01 1.55783796e+00 3.89977306e-01 2.13132381e+00
      -2.74658710e-01 2.55151153e-01 -5.31018317e-01 8.78010094e-01
      -1.47428378e-01 2.89332479e-01 3.59593958e-01 -2.02498183e-01
      2.36299706e+00 -5.05814180e-02 2.00081363e-01 -9.14608240e-01
      -9.22204077e-01 -1.11020112e+00</_>
    <_>
      -8.44693065e-01 -1.07931125e+00 -7.55314767e-01 -1.01041543e+00
      -7.64624953e-01 1.52197099e+00 3.73086900e-01 2.19044662e+00
      -1.66907296e-01 1.86882064e-01 -3.17733288e-01 8.53495419e-01
      -1.07321747e-01 3.74948919e-01 2.20398873e-01 -2.04148263e-01
      2.37478924e+00 -1.12907812e-01 1.94330245e-01 -9.24761176e-01
      -9.39657569e-01 -1.06255281e+00</_>
    <_>
      -7.81698585e-01 -1.11132431e+00 -6.94556177e-01 -9.48405921e-01
      -7.64649034e-01 1.65260625e+00 4.07985032e-01 2.23229289e+00
      -7.88759962e-02 2.07178578e-01 -2.43688837e-01 1.00851011e+00
      -2.19061553e-01 2.52644181e-01 2.90532172e-01 -3.70613664e-01
      2.21903205e+00 -1.77384809e-01 5.75209297e-02 -9.52194691e-01
      -9.21884239e-01 -1.06396437e+00</_>
    <_>
      -8.50046515e-01 -1.09552085e+00 -7.39489377e-01 -1.02244067e+00
      -7.30120122e-01 1.42293358e+00 3.58586758e-01 2.22868919e+00
      -1.54848158e-01 2.44281858e-01 -2.26054490e-01 1.10250521e+00
      -1.77334353e-01 2.03057230e-01 2.87380427e-01 -2.67279118e-01
      2.29052615e+00 -8.55157524e-02 1.88066438e-01 -9.28748250e-01
      -9.77468312e-01 -1.07116079e+00</_>
    <_>
      -8.81204724e-01 -1.00776947e+00 -9.01294351e-01 -9.19375002e-01
      -8.39016438e-01 1.49941778e+00 -2.42354140e-01 1.09762502e+00
      -7.56101459e-02 2.88012475e-01 4.78864014e-01 1.95746148e+00
      4.18595046e-01 4.22613055e-01 8.71159881e-02 -2.58425862e-01
      2.37130809e+00 -5.33653855e-01 -5.95384352e-02 -8.71159852e-01
      -9.09330189e-01 -1.12228036e+00</_>
    <_>
      -9.80801284e-01 -1.03564370e+00 -8.71116579e-01 -9.56216812e-01
      -9.29741144e-01 1.24504173e+00 -1.82750568e-01 9.99196649e-01
      -9.38681364e-02 1.46303609e-01 5.45329034e-01 1.76888072e+00
      4.79139954e-01 5.73695779e-01 3.24068487e-01 -1.92206115e-01
      2.58962488e+00 -4.92893487e-01 -8.25213864e-02 -8.76789927e-01
      -9.16503370e-01 -1.06022811e+00</_>
    <_>
      -9.82952118e-01 -1.08924091e+00 -8.57338011e-01 -8.76663268e-01
      -8.65068078e-01 1.39985025e+00 -6.88681230e-02 1.12736428e+00
      -6.30705208e-02 2.49998376e-01 2.57728457e-01 1.84819591e+00
      3.11839134e-01 5.55337250e-01 2.07482785e-01 -1.40371591e-01
      2.48592901e+00 -4.10924911e-01 -1.11383699e-01 -9.17246282e-01
      -9.36571479e-01 -1.12402642e+00</_>
    <_>
      -9.24487829e-01 -1.05340600e+00 -8.94154191e-01 -8.12632382e-01
      -7.29214787e-01 1.70316720e+00 -3.53318825e-02 1.41689301e+00
      2.15438046e-02 2.56629854e-01 3.05922031e-01 1.58752000e+00
      2.94546962e-01 5.14466166e-01 1.73212156e-01 -2.53355175e-01
      2.32879925e+00 -4.80857760e-01 -2.96959847e-01 -9.60509062e-01
      -1.02307224e+00 -1.13871944e+00</_>
    <_>
      -9.87892210e-01 -9.91985917e-01 -7.91392982e-01 -8.18002284e-01
      -8.24142873e-01 1.74058080e+00 2.79114489e-03 1.06511486e+00
      -3.40523794e-02 1.97243556e-01 2.83211857e-01 2.01076722e+00
      2.21805945e-01 3.87602061e-01 -5.86147718e-02 -1.73239380e-01
      2.30756283e+00 -4.43425685e-01 -1.17973976e-01 -9.63329792e-01
      -9.16251838e-01 -1.09637606e+00</_>
    <_>
      -8.34938765e-01 -1.12914419e+00 -7.30474472e-01 -8.92500639e-01
      -7.47529864e-01 1.73616087e+00 -1.84120405e-02 1.09018803e+00
      -3.38200510e-01 1.71329051e-01 5.03914012e-03 1.92163825e+00
      1.18031017e-01 5.82790375e-01 -1.33535936e-01 -1.05820969e-01
      2.42264032e+00 -2.48659819e-01 7.75231747e-04 -9.22347605e-01
      -8.32806766e-01 -1.11422074e+00</_>
    <_>
      -7.19866157e-01 -1.00297701e+00 -7.45603502e-01 -8.72145474e-01
      -8.09946895e-01 1.97826707e+00 -7.79922493e-03 1.14823711e+00
      -5.71291782e-02 3.46089453e-01 2.96759486e-01 1.95252955e+00
      2.32416183e-01 3.99709016e-01 -1.12893380e-01 -2.30856270e-01
      2.07907176e+00 -5.67586780e-01 -1.79381564e-01 -9.81529236e-01
      -9.57936704e-01 -1.18742812e+00</_>
    <_>
      -9.45168376e-01 -1.11827743e+00 -7.65876770e-01 -9.53411639e-01
      -7.76180863e-01 1.59788716e+00 -2.09454566e-01 1.12389803e+00
      -1.47629842e-01 1.22337915e-01 2.08892509e-01 1.92761874e+00
      2.66595542e-01 5.79840660e-01 1.51189491e-01 -2.19758645e-01
      2.39130402e+00 -3.45468909e-01 -9.55471210e-03 -8.62735391e-01
      -9.41046715e-01 -1.07500017e+00</_>
    <_>
      -8.74824107e-01 -1.08768821e+00 -7.76424646e-01 -8.68799686e-01
      -7.80440986e-01 1.71569228e+00 3.08525283e-02 1.04697740e+00
      -2.08117545e-01 1.69415087e-01 1.61382347e-01 1.82814872e+00
      2.51749277e-01 6.09200418e-01 1.88035592e-02 -1.69962749e-01
      2.40248036e+00 -3.74794275e-01 8.76283087e-03 -9.73223567e-01
      -9.81256187e-01 -1.14793277e+00</_>
    <_>
      -8.88575315e-01 -1.08085716e+00 -8.62537146e-01 -8.68545949e-01
      -8.60534191e-01 1.48690701e+00 -2.69668013e-01 1.00019348e+00
      7.28311890e-04 2.69121736e-01 5.51535726e-01 2.20796394e+00
      3.53245080e-01 5.81579804e-01 -5.13480715e-02 -2.21597552e-01
      2.19394350e+00 -4.91993934e-01 -2.35618144e-01 -9.28633988e-01
      -9.08604622e-01 -9.76704478e-01</_>
    <_>
      -8.74091983e-01 -1.00216079e+00 -7.65726030e-01 -8.48478258e-01
      -7.51934052e-01 1.65378916e+00 -1.17500864e-01 1.35430527e+00
      5.78547977e-02 3.33695322e-01 7.51396775e-01 2.04784703e+00
      3.94774318e-01 3.63249689e-01 -8.99168849e-02 -2.77094334e-01
      1.91977811e+00 -6.19924605e-01 -3.77579093e-01 -9.98220205e-01
      -1.04156649e+00 -1.11249697e+00</_>
    <_>
      -7.57470310e-01 -9.84522045e-01 -7.11643338e-01 -9.05366421e-01
      -7.88715959e-01 1.82342052e+00 -1.24225110e-01 1.17767692e+00
      -3.25712264e-02 4.36113477e-01 5.92341721e-01 2.10463119e+00
      1.98646545e-01 4.31947470e-01 -1.90882474e-01 -3.26280355e-01
      1.95881820e+00 -5.65830350e-01 -2.45041654e-01 -9.86605108e-01
      -9.17864680e-01 -1.18657720e+00</_>
    <_>
      -7.88461387e-01 -1.03864622e+00 -7.66087115e-01 -8.12869608e-01
      -8.31175804e-01 1.59337986e+00 -1.49778098e-01 1.08487403e+00
      -5.21450117e-02 2.73298711e-01 3.13979179e-01 2.02459264e+00
      1.73631653e-01 5.39755821e-01 1.02440827e-01 -1.76220357e-01
      2.31952596e+00 -5.07766128e-01 -1.51812091e-01 -1.00406778e+00
      -9.95931685e-01 -1.15051746e+00</_>
    <_>
      -7.48867810e-01 -1.07302117e+00 -7.34686136e-01 -8.21802378e-01
      -7.99516797e-01 1.85854042e+00 1.49184242e-02 1.29127204e+00
      -6.40939549e-02 4.07954276e-01 3.32993865e-01 1.66404855e+00
      2.31695920e-01 5.27485788e-01 1.64839357e-01 -2.26170570e-01
      2.17053819e+00 -5.34116268e-01 -3.11260849e-01 -1.06086540e+00
      -1.07302117e+00 -1.21686423e+00</_>
    <_>
      -9.05966997e-01 -1.05207896e+00 -7.21825838e-01 -9.03965414e-01
      -8.23904097e-01 1.74406374e+00 -8.73396322e-02 1.24768329e+00
      -5.33135980e-02 1.74861237e-01 3.81019294e-01 1.82812810e+00
      2.12890401e-01 5.21126568e-01 3.27523574e-02 -1.13359533e-01
      2.24044418e+00 -4.27600324e-01 -1.17362663e-01 -1.01004672e+00
      -9.96035993e-01 -1.17016935e+00</_>
    <_>
      -7.30361819e-01 -9.64401424e-01 -7.82140553e-01 -7.92496264e-01
      -7.73855984e-01 1.97662771e+00 2.82425759e-03 1.32214499e+00
      -4.68832627e-02 3.23852152e-01 3.07282984e-01 1.74673045e+00
      1.66444868e-01 4.54334408e-01 -4.48121466e-02 -2.74709463e-01
      2.13403487e+00 -5.56385458e-01 -2.02219293e-01 -1.07624340e+00
      -9.99610960e-01 -1.19015658e+00</_>
    <_>
      -9.14268792e-01 -1.06231642e+00 -8.17626595e-01 -9.59505498e-01
      -7.86783278e-01 1.67245209e+00 4.59845252e-02 1.10493624e+00
      -1.26737759e-01 2.16650501e-01 1.54963955e-01 1.78143132e+00
      2.20762864e-01 4.53115404e-01 -9.17819887e-02 -4.65452969e-02
      2.48465753e+00 -3.36471856e-01 -1.77582093e-02 -8.89594197e-01
      -9.22493637e-01 -1.16307104e+00</_>
    <_>
      -8.29812467e-01 -9.96774077e-01 -7.11459994e-01 -8.80534947e-01
      -6.79758370e-01 1.83945930e+00 1.00100070e-01 1.42733884e+00
      1.97894033e-02 2.94536412e-01 3.70620131e-01 1.92188334e+00
      1.65616646e-01 3.32578212e-01 -1.59852713e-01 -3.47948700e-01
      2.06559706e+00 -6.18468702e-01 -2.02121451e-01 -9.41824675e-01
      -1.00945461e+00 -1.15950871e+00</_>
    <_>
      -8.88902903e-01 -1.05998647e+00 -8.40596974e-01 -8.46635222e-01
      -8.78839195e-01 1.89875364e+00 4.70251180e-02 1.32713306e+00
      -3.29354685e-03 2.86542147e-01 2.80503988e-01 1.76389956e+00
      2.04019517e-01 4.65676785e-01 7.31908083e-02 -1.66326210e-01
      2.10807967e+00 -5.22582650e-01 -1.44185960e-01 -9.85514820e-01
      -1.00362957e+00 -1.11433077e+00</_>
    <_>
      -7.59734213e-01 -1.08381939e+00 -7.12201715e-01 -9.64988172e-01
      -6.79793179e-01 1.75948799e+00 -4.67468947e-02 1.28632355e+00
      -2.02307731e-01 1.67149425e-01 -4.24256958e-02 1.67738628e+00
      1.54185951e-01 5.30124843e-01 -1.22366652e-01 -1.93665460e-01
      2.49624157e+00 -3.55708033e-01 5.69604598e-02 -9.13134575e-01
      -8.59120369e-01 -1.19184780e+00</_>
    <_>
      -8.60588312e-01 -1.08014965e+00 -7.80363977e-01 -9.34479177e-01
      -7.84586370e-01 1.78892589e+00 -1.82327796e-02 1.18935466e+00
      9.78813842e-02 2.73108214e-01 1.90772697e-01 1.91981828e+00
      1.80216894e-01 4.73669022e-01 -1.63903341e-01 -2.35682920e-01
      2.23860431e+00 -4.40466136e-01 -4.56780344e-02 -9.42923844e-01
      -9.83035982e-01 -1.08226085e+00</_>
    <_>
      -8.51170719e-01 -1.06311333e+00 -7.92990386e-01 -9.44674790e-01
      -6.97408378e-01 1.82096887e+00 2.36121602e-02 1.23293197e+00
      -2.34043643e-01 2.37632632e-01 -1.05215743e-01 1.50928855e+00
      1.81530163e-01 5.36845803e-01 4.23129462e-02 -5.53468987e-02
      2.49627614e+00 -3.54560077e-01 9.63375866e-02 -9.11428928e-01
      -9.65453506e-01 -1.20233059e+00</_>
    <_>
      -7.72067249e-01 -1.02542305e+00 -6.14518285e-01 -8.63615990e-01
      -6.84776664e-01 2.02762008e+00 3.27098034e-02 1.24200439e+00
      -1.88710406e-01 1.41290843e-01 -2.50452518e-01 1.55284429e+00
      3.27098034e-02 5.39421320e-01 -3.96775939e-02 -2.90323012e-02
      2.39807320e+00 -3.78194869e-01 3.69678214e-02 -9.78584111e-01
      -9.23229098e-01 -1.25535929e+00</_>
    <_>
      -7.29946733e-01 -1.07740366e+00 -8.31025124e-01 -9.67902064e-01
      -7.78380096e-01 1.66855907e+00 -5.55170421e-03 1.16737878e+00
      -1.10841595e-01 1.81864500e-01 2.26086244e-01 1.87282157e+00
      1.77652970e-01 4.64041620e-01 -2.02922039e-02 -1.06630057e-01
      2.42032957e+00 -5.46742141e-01 -6.66198432e-02 -9.34209287e-01
      -8.94199133e-01 -1.10899067e+00</_>
    <_>
      -4.62660730e-01 -1.05172801e+00 -6.93264604e-01 -1.00149751e+00
      -6.88698173e-01 1.85022771e+00 4.19280380e-02 1.18581450e+00
      -2.25207180e-01 4.23223495e-01 7.61761665e-02 1.76803243e+00
      6.70432076e-02 3.25045586e-01 -1.93242356e-01 -1.49861410e-01
      2.38906455e+00 -4.16996628e-01 -4.02673818e-02 -1.01519680e+00
      -9.33001280e-01 -1.25493348e+00</_>
    <_>
      -7.34581113e-01 -1.04819381e+00 -6.80509984e-01 -9.68168497e-01
      -6.99975610e-01 1.87813687e+00 5.91833442e-02 1.43259048e+00
      -2.52266526e-01 2.12745398e-01 -7.27503225e-02 1.57750130e+00
      1.88954070e-01 4.93915349e-01 -2.54429340e-01 -2.04683855e-01
      2.37775421e+00 -2.45777950e-01 7.27505283e-03 -9.78982747e-01
      -8.90306056e-01 -1.19743025e+00</_>
    <_>
      -8.71777833e-01 -1.04226780e+00 -6.81230247e-01 -7.87535727e-01
      -6.75213039e-01 2.14087915e+00 1.91276878e-01 1.42281568e+00
      -7.14781210e-02 3.45720708e-01 -1.93282198e-02 1.37668335e+00
      1.55173197e-01 5.14204800e-01 -1.93282198e-02 -1.65749013e-01
      2.18701172e+00 -4.84665424e-01 -2.62025654e-01 -1.03023314e+00
      -1.02822745e+00 -1.19470572e+00</_>
    <_>
      -9.39039469e-01 -1.04105854e+00 -8.03667963e-01 -8.64487052e-01
      -7.60506034e-01 1.78800964e+00 5.95706329e-02 1.34069502e+00
      -1.15039021e-01 2.57723033e-01 3.01420260e-02 1.45644760e+00
      1.59627825e-01 5.91246963e-01 1.05229160e-02 -1.49818230e-02
      2.46290517e+00 -5.01534462e-01 -4.24485542e-02 -9.88087118e-01
      -9.52772796e-01 -1.13326812e+00</_>
    <_>
      -9.33143198e-01 -1.05994093e+00 -8.36535454e-01 -8.40560794e-01
      -6.63446546e-01 1.91074800e+00 1.85896814e-01 1.34116471e+00
      -1.28076959e-03 2.66403258e-01 4.70231026e-02 1.47400033e+00
      1.43630847e-01 5.58239102e-01 -1.93946920e-02 -1.70344442e-01
      2.34548306e+00 -4.54129696e-01 -1.44179747e-01 -9.55282509e-01
      -9.99561071e-01 -1.19478929e+00</_>
    <_>
      -8.22395444e-01 -1.06170595e+00 -7.08929241e-01 -8.86349082e-01
      -7.17181325e-01 1.96268368e+00 2.04989299e-01 1.17254639e+00
      -1.64291501e-01 1.10090390e-01 -2.53001422e-01 1.47168469e+00
      3.58215123e-02 5.63955128e-01 -4.66993302e-02 -6.32034987e-02
      2.51144743e+00 -3.37585390e-01 6.26408756e-02 -9.70933020e-01
      -9.02853251e-01 -1.16073096e+00</_>
    <_>
      -8.03424418e-01 -1.02890575e+00 -7.67507076e-01 -9.39112306e-01
      -6.11865103e-01 2.15576792e+00 1.88294098e-01 1.42544806e+00
      2.26751193e-02 3.31963539e-01 -1.72330607e-02 1.47932422e+00
      1.00496098e-01 3.67880970e-01 -1.09021932e-01 -1.17003568e-01
      2.13581371e+00 -4.36269134e-01 -1.54916361e-01 -1.02890575e+00
      -9.85006690e-01 -1.20849264e+00</_>
    <_>
      -8.71548235e-01 -1.05011201e+00 -7.27876186e-01 -8.28446627e-01
      -6.92984402e-01 2.07372880e+00 2.33233813e-02 1.16243732e+00
      -1.30610494e-03 2.30621636e-01 3.15332077e-02 1.68991911e+00
      1.93677351e-01 4.87178862e-01 -5.87749034e-02 -1.22401103e-01
      2.21534824e+00 -5.04158258e-01 -5.87749034e-02 -1.00701046e+00
      -9.90590751e-01 -1.19378412e+00</_>
    <_>
      -7.53138244e-01 -9.41603184e-01 -7.05526054e-01 -8.20588827e-01
      -5.30947983e-01 2.27221966e+00 1.63396373e-01 1.40726471e+00
      -1.52034417e-01 2.54653096e-01 -1.97662666e-01 1.14143002e+00
      8.60265642e-02 4.90730166e-01 2.70520174e-03 -1.57985851e-01
      2.34363794e+00 -4.47626710e-01 -2.39323407e-01 -1.00905383e+00
      -1.01103759e+00 -1.19553483e+00</_>
    <_>
      -7.50715673e-01 -9.90104496e-01 -6.02919161e-01 -8.46471190e-01
      -5.80021083e-01 2.19480729e+00 1.46471888e-01 1.43292654e+00
      -1.55366167e-01 1.36063710e-01 -1.63692728e-01 1.46206951e+00
      1.73533186e-01 2.38064095e-01 -2.86509573e-01 -2.28223637e-01
      2.31970572e+00 -4.69694048e-01 1.11651234e-02 -9.58879888e-01
      -9.17247057e-01 -1.16496241e+00</_>
    <_>
      -8.66180241e-01 -1.03035223e+00 -8.08119357e-01 -9.10226345e-01
      -7.18024969e-01 1.85066617e+00 1.48883253e-01 1.32411444e+00
      8.48161504e-02 4.91241962e-01 3.07048947e-01 1.67448163e+00
      1.18851766e-01 2.91032165e-01 -9.93768871e-02 -1.97479606e-01
      2.22305632e+00 -4.87783760e-01 -1.75456509e-01 -9.94314432e-01
      -1.02034175e+00 -1.20653677e+00</_>
    <_>
      -3.69370043e-01 -8.88303757e-01 -6.19833291e-01 -9.50510323e-01
      -7.98267901e-01 1.51200682e-01 -3.49725842e-01 1.34830490e-01
      -4.62679893e-01 -2.06858907e-02 4.91699666e-01 3.88359427e+00
      3.98836136e-02 3.68923575e-01 -6.46025538e-01 -1.41824991e-01
      1.12686145e+00 -1.10721700e-01 3.09991062e-01 -5.36345541e-01
      -2.08942652e-01 -4.03747380e-01</_>
    <_>
      2.68365353e-01 -8.53134155e-01 -4.09439564e-01 -1.04711115e+00
      -7.99623251e-01 1.14906573e+00 -2.33299494e-01 8.32459569e-01
      -2.93499291e-01 4.02142584e-01 6.18415713e-01 3.28950191e+00
      -1.06211029e-01 2.43839487e-01 -7.26045728e-01 -5.67742646e-01
      1.25385797e+00 -5.00853956e-01 -6.16186224e-02 -8.86578500e-01
      -7.21586466e-01 -8.50904524e-01</_>
    <_>
      3.34272534e-01 -8.90666902e-01 -5.20133674e-01 -9.90928888e-01
      -7.72968113e-01 9.07509327e-01 -2.25886554e-01 7.52757192e-01
      -3.23968977e-01 3.32092971e-01 8.33402753e-01 3.28328156e+00
      -5.58772720e-02 1.94777682e-01 -5.94240308e-01 -5.33211291e-01
      1.38266385e+00 -5.96419930e-01 2.69478559e-02 -9.19001818e-01
      -7.70788491e-01 -8.53613615e-01</_>
    <_>
      1.79541074e-02 -9.78110194e-01 -5.33745289e-01 -1.05109763e+00
      -7.97788262e-01 1.00113821e+00 -2.31061906e-01 7.28508592e-01
      -3.42689902e-01 3.76451463e-01 7.32802153e-01 3.36035109e+00
